# TITLE: Prototype vectors mini
CASTLE -3.622572 -1.254312 -5.9335 -2.408283 0.509488 2.095046 -2.506355 -0.481774 -1.888847 -0.9036398 -2.452201 -2.570711 -2.937071 0.8082557 1.628307 -4.454962 -2.362748 -5.192002 -3.576852 -5.234611 -1.735114 1.696253 -4.031649 -0.3947257 -2.941483 -4.650772 -2.958883 -4.10553 -1.937276 -3.121812 -2.658141 -1.069976 -0.7069546 -4.597267 -0.5800021 -0.8869604 -0.936697 -3.230253 -1.293429 -3.162002 -0.3920049 -2.490391 0.9003852 -3.384184 -2.097804 -2.757921 -2.00504 -3.703343 -4.717411 -2.362097 -0.7784921 0.8609472 -3.492559 -6.324218 -1.142119 -1.171911 -4.358922 -1.10268 -4.75933 -2.146133 -3.411884 -1.624695 -5.563042 1.624185 -6.270103 -4.655723 -2.905701 -3.301754 -2.472425 -1.116264 -3.780818 -1.882247 -3.177136 -3.611839 2.833463 -3.389278 -2.968146 -3.201847 -1.578056 -1.151244 -2.816908 1.217947 -4.779634 -2.327186 -3.753846 -1.935374 -1.366159 -2.127601 -3.125074 0.2506395 -3.095622 -1.508105 -0.2741896 -1.024375 -3.770508 -0.01198696 -3.479672 -1.59896 -1.470514 -0.6483722 -2.126392 -1.008366 -2.361856 -2.794311 0.3392641 -3.277093 -3.06423 -0.4389806 -1.894141 -2.105902 -2.322295 -0.240647 -2.919187 -1.778889 -2.693491 2.17263 -2.993838 -1.020212 0.9470794 -3.116956 -5.001218 -2.975111 -2.420205 -1.439023 -4.769552 0.9180662 -3.602943 -0.04652264 -3.437044 -3.608992 -4.356083 -4.479397 -3.582539 -1.679005 -4.391068 -2.016019 -2.031983 1.387276 -3.300555 -2.9372 -3.058129 -2.000038 -1.352248 -1.418055 -1.857528 -2.34165 -3.355907 1.002041 -2.166577 -3.735983 -3.571062 -3.723835 -3.214836 -0.4730896 -2.905531 -4.280354 -2.579384 -2.401602 -3.055101 -1.963425 -2.279802 -1.670464 -4.999672 -4.028202 -2.401744 -4.142571 -3.446932 -3.279108 -3.289092 -2.784272 0.3875057 -2.456463 -5.933695 -4.400581 -1.27249 -2.649722 -0.7686517 -5.139973 -3.889436 -5.363459 -0.4515141 -3.052266 -4.716805 0.3010218 -2.087869 -2.843936 -2.321049 -4.764179 -1.18649 -2.892618 -1.722377 0.4634844 -4.631973 0.7873867 -3.854798 -5.060613 -0.3224298 -1.650419 -1.588984 0.6534535 -1.464458 -1.032996 -2.547664 0.7956398 -0.3655826 -1.002123 -0.4878623 -2.112889 -0.1702218 0.4972132 1.261531 -1.422804 -0.03823722 -3.197524 -3.082505 -3.454128 -3.690826 -0.1626054 -1.50205 -3.022712 2.516439 3.188491 2.635794 -3.388332 1.11499 -2.146353 -4.210123 -1.55366 -1.391599 -2.009984 -2.548312 -5.587033 -2.594496 -0.3641924 -1.137614 0.04218381 -3.947378 -1.526099 -1.528175 -3.447981 -1.176242 0.5024379 -5.825383 -0.5538357 -1.10817 0.7296889 -3.671433 -3.386845 -1.220484 -0.6809943 -1.205991 0.2855726 0.3898074 -1.649221 -4.022153 -4.168223 -1.918357 -4.520202 -2.369461 -2.767022 -1.05937 -4.369392 -2.170658 -1.749225 0.2739122 0.9794676 -0.2382926 -1.044976 -2.754494 1.594937 -2.126559 -0.52622 1.476484 -2.652045 -1.81013 -2.259763 -0.2609758 -2.284036 -1.0178 -2.968332 -1.408741 -0.4073189 -2.428249 0.00369781 -3.037742 -3.127741 -2.82474 -3.112465 -3.221179 -0.7971119 -4.292902 0.3272104 -0.9883164 1.793666 -4.002686 -0.2676623 -4.609748 -2.849617 -1.820239 -2.512447 -4.053114 -2.32391 -3.304962 -2.210585 -2.479997 -4.349069 0.04948807 0.3582262 -1.41008 -2.352074 -0.8742982 0.7680584 -2.871515 -2.421628 -4.149635 -4.517187 -3.961387 -3.394359 -4.902012 -3.813662 -1.709998 -4.109002 -1.891104 2.398082 0.4862269 2.831344 -5.59292 -1.480994 -1.404752 -3.074782 -0.3557439 0.4110462 -1.907308 -1.985598 -2.799586 -0.6832968 0.1950715 -2.458703 -0.4099081 -3.92948 -1.14377 -2.303466 -0.4345025 -0.9677336 -3.167947 -3.819232 -3.281813 -3.858869 -3.979494 -3.554243 -2.222389 -1.784892 -2.66321 -1.643154 -1.98044 -1.328041 -3.454932 -6.696784 0.2676939 -1.436123 -4.89356 -3.369973 0.6056301 -1.896922 -3.358229 4.133941 -1.320268 1.431912 -2.365791 -3.149432 -4.885473 -3.335039 -3.425972 -2.835376 -2.111493 -4.148814 -2.530636 1.543227 -3.392861 -2.172922 -5.265509 -2.514974 -1.656632 -0.4586401 -5.02812 -2.029032 -4.794168 -3.954108 -2.360872 -2.133892 0.5695415 -3.42362 -1.692317 0.6899074 -1.84228 -3.490782 -4.817832 -3.835864 -4.756427 -3.552159 -2.165036 -2.483445 -0.3073846 -2.250115 -1.696597 -1.878183 -2.094244 -3.449365 -1.381418 -3.020437 -2.82459 -2.799468 0.6123828 -2.338294 1.083716 1.479949 -3.024684 -2.775512 0.8391098 -2.483753 -1.437101 0.005193233 -2.263384 0.1686955 -2.742579 -2.680357 -0.4460471 -3.610156 -3.666299 -1.914804 -2.722801 -0.6106199 -0.772715 -4.850335 1.748979 -6.275134 1.089677 -3.633012 -4.377755 1.035592 -4.128281 -3.570868 -3.68444 1.349638 0.2270227 -0.2816402 -0.3151437 -3.201042 0.07540069 -0.325976 -1.391816 -0.7570148 -7.000815 -1.853994 -1.545846 -1.884488 -0.7134183 -1.590522 -4.228136 -3.688295 -2.734255 -0.3590851 1.095099 -0.3318227 0.117112 -3.859817 -1.574814 -2.613131 -2.917007 -4.286454 -3.760596 -2.0499 -0.8839312 -1.595898 -4.735149 -1.844304 -2.953594 -3.227512 -0.0306513 -2.218294 -0.1517836 -1.851001 -0.9991956 -4.034772 -1.783979 1.043037 -2.505981 -1.560666 0.3766886 -3.820386 -3.296902 -3.616183 -2.533639 -2.071319 -0.2999375 -6.431546 -1.388784 -2.286353 -4.707014 1.964614 1.563692 -2.28108 0.350253 -2.063256 -1.947207 -3.845833 -5.38612 -1.606348 -3.609668 -3.225534 -3.897188 -1.15132 -1.087365 -0.2577992 -3.078281 -2.200785 0.1671994 -2.168858 -1.146009 -0.6793154 -1.37108 -2.206548 0.6252624 -2.784164 -1.471495 -0.8403556 -2.580796 -0.7822667 0.4524919 -2.869205 -5.420859 -3.178664 -3.832831 -1.859945 1.996158 -2.724106 -2.557676 -1.583019 0.9850286 -5.183266 -2.968024 -1.56163 2.072543 -3.906569 1.022292 -1.734914 -2.041037 -3.253422 -2.925641 -1.7996 -7.095134 -1.098965 -5.647376 0.0918851 -0.8170617 -2.563682 -2.578587 -4.790265 1.030705 0.124086 -7.616062 -2.364954 -2.944723 1.049716 0.3220029 -1.283975 -2.39024 0.4895996 -1.689933 -0.6430593 3.716097 -1.257136 -1.607431 -1.489075 -1.543971 -3.290721 -1.674558 -4.077198 1.241797 -2.46894 -3.728783 1.614436 -0.5891577 -3.277949 -1.879857 -2.192333 -1.519102 2.42219 -1.299415 -0.06888959 -1.139732 -1.06542 -4.687597 -0.1954089 -3.076591 0.2393604 -3.166602 -3.731055 -1.900907 -1.935805 -4.788339 -1.036961 -1.4112 0.1144177 -3.508104 -1.369326 0.5581836 -3.350253 -4.69781 -2.210476 -0.4321653 -1.549671 -3.21666 -2.116272 -2.472198 -3.219343 -1.503327 -0.7140759 -0.6181884 1.361791 -0.9003978 -3.189868 -1.821014 -1.198474 -4.714952 -1.290686 -2.731967 -0.6803567 -0.2205855 -2.855809 0.4160005 -2.107145 -0.9208265 -1.872445 -3.693196 -4.19112 2.317239 -0.1240016 -1.603949 -3.255372 -1.797841 -0.3293257 -0.2833395 -1.36509 -0.8902612 0.002496575 -3.126949 -3.547476 -1.299054 -1.698501 -6.222426 -0.2932521 -1.513733 -0.4997066 0.5492079 -3.014864 -1.473191 1.007534 -0.4327376 -0.5259304 -3.97798 -0.9365542 -2.904459 -1.825508 -0.6718358 0.2747985 -6.667607 -3.36873 -0.8820105 1.162318 0.760729 -0.7638282 -4.620372 -0.9389409 -0.599366 0.4319555 1.436543 -1.250305 -3.868728 -3.010733 -0.9512856 2.888172 -0.3752594 -0.2684263 -2.020917 -3.937043 0.08616315 -5.93214 -2.71051 -3.117738 -2.267512 -2.125525 1.658663 -0.5849819 1.325961 -4.247649 -2.108141 -2.246301 -0.01477088 -1.233433 -2.310423 -4.64483 -5.307148 -0.3783082 1.168731 -1.234856 -5.399724 -1.965578 -0.4441524 -0.4933365 -2.739252 -0.4221183 -0.7763874 0.3093306 -2.771824 -2.08792 -4.657945 -3.793168 0.01619197 -3.866015 -0.3898431 -0.3972125 -3.286401 -2.674788 -1.004753 -3.328539 -1.509581 -3.412189 -2.035501 -1.852523 -2.029408 -2.671091 -3.171198 -4.015194 -3.32238 -0.9396099 3.056695 -3.296371 -1.005922 -2.101061 -1.65088 -2.624705 -2.692391 -4.350256 0.9535554 2.052935 -1.392763 -3.469611 -3.504583 -0.2645893 0.200481 -2.801534 -3.98403 -3.07352 -0.4308046 -4.234455 -1.00165 -2.306741 -1.148936 -3.75975 -3.787828 -3.38744 -2.889225 -0.4107861 0.6828447 -2.635309 -1.215198 -2.437164 -1.809717 -2.822917 -3.146692 -4.668664 -4.371674 -1.699571 -4.324844 -0.7374651 -4.492082 -3.846072 4.52003 -2.003435 -1.478295 -1.01493 -1.098001 -2.601029 -0.3283974 -1.027035 -2.358742 -5.065925 1.634035 -2.55091 -3.759726 0.9569203 -0.7505563 -1.818744 -2.86432 -4.160026 -2.283019 -3.837659 -0.8198209 1.046421 -1.630436 -6.341163 -1.514767 -1.498244 -1.093068 -2.029721 -2.276376 0.1628926 -3.754269 -4.972476 -1.331987 -5.482736 -1.897884 -0.3085784 -5.173127 0.3959913 -1.813433 -1.318821 -4.060713 -2.383687 -1.655107 -1.792367 3.609979 -3.507231 -3.010668 -1.528244 -5.478057 -2.327619 1.09302 -0.1475612 -4.16505 -0.4899019 1.081812 -5.840047 -1.478071 -0.746338 -0.4598531 -2.610115 -0.6897933 -3.353371 1.729221 -3.618333 -2.127244 -3.379719 -2.521626 -0.6493597 -0.1078128 0.0969775 -3.477806 -3.335506 -4.699928 0.4767876 -3.834796 -3.379774 -1.606742 -3.139498 -0.2426305 -0.8867483 -1.73256 -2.184418 0.4528814 -5.483595 -2.140742 -2.912057 -1.246385 -4.752958 -2.82154 -4.107629 -3.193163 -0.6372142 -3.673089 -0.8640165 -1.003962 -4.215747 3.243071 -3.361806 -2.325017 -1.378374 -3.511624 -0.8243632 1.46843 -2.263227 -4.768445 -2.86367 0.314186 -2.811905 -1.942576 -2.914824 -5.590445 0.9228529 -2.407057 -2.312306 -0.6289685 -1.607057 -2.966401 -2.935828 -2.153444 -1.743753 -1.593172 -1.371186 -2.718966 0.6354399 -1.768721 -1.927793 2.633247 3.475945 -3.443577 -5.332541 -0.08612943 -2.399718 0.3450415 -3.016396 -2.433861 -3.629813 -2.950822 -1.283219 -3.876843 -4.416963 -2.315923 -0.5495045 -2.816464 -3.836278 -2.614443 0.4401477 0.8675511 -1.028828 -7.34429 0.5903593 -2.643488 -1.419251 -4.519245 1.776882 -2.834856 -3.337192 -3.249098 1.444106 -1.550868 -5.068995 2.330999 1.168584 -4.24412 -4.34263 -4.794546 0.3588059 -3.356646 -1.410477 -3.171301 -0.02387529 -1.838672 -1.143547 -2.570325 4.109911 -3.457326 -3.12897 -2.463427 -4.006604 -5.709847 -3.73614 5.166227 -5.758152 1.600801 -0.0613756 2.892757 -1.735554 -2.03736 -1.385925 0.7205794 -2.487733 -2.52712 -3.238536 -2.238078 0.4947361 -4.257483 -4.700814 -1.730427 -5.089626 -3.790418 -1.584547 -2.119523 -3.228482 -2.597872 -3.750978 0.5283911 -3.89567 -1.975286 -3.844831 -1.227267 -3.675955 -4.525851 -2.815853 -3.178002 -0.942966 -0.6604594 -3.477204 -3.342941 0.2873903 -0.3378332 -2.155188 -0.8047743 -2.988574 -0.5529076 -2.434173 -1.350212 -0.8348668 2.079097 -3.710124 0.08867586 -0.5334973 -2.761992 -2.360855 0.9875504 -2.275967 -3.639492 -4.13204 -1.658465 -0.3390228 -0.1544787 -1.300792 -3.13062 -0.6163436 -0.3629226 -2.318081 -3.250416 0.9220294 -2.018481 -2.425354 -0.7538261 -0.5437912 -4.183323 2.80138 -5.016607 -0.03016176 -2.832879 -2.691108 -2.441248 -2.650834 -0.5342367 0.03627674 -2.067013 -0.7185405 0.007764733 -2.526027 -3.838593 -2.982962 -2.504204 -4.629008 -1.948713 0.4721881 -2.532034 -0.2930915 -0.01531286 -4.873871 -2.816821 2.151829 -1.91965 -4.279472 -3.383311 -1.916127 -3.469409 -1.806379 1.46771 -2.976165 -2.7667 -1.885877 3.233979 0.4969248 -0.1665912 -4.568077 -1.181068 -2.08494 -2.589944 -4.185831 -3.515575 -3.305455 -5.668682 -0.9257816 -0.994213 2.175589 -0.4772643 -3.947228 -4.6461 -2.033228 -2.40653 -1.538771 -3.034266 -3.616891 -2.722448 0.7756558 0.4311915 -4.914276 -2.534853 1.351714 -4.057363 -5.098509 -0.598569 -0.7326427 -1.322359 -0.1095787 -4.267824 -0.4782235 -0.1975157 -2.405902 -1.990806 0.7590826 -2.522071 -2.058904 -2.392755 -5.883798 -2.090837 -0.7975689 0.2371424 -2.690589 -3.941574 -4.264729 -1.529159 0.7328704 -2.798038 -1.453078 -1.453595 -2.972619 0.1354218 0.9180869 -4.61339 -1.813633 -1.827661 -1.534197 1.40377 -3.969697 -1.669696 -3.608591 -1.140028 -0.5995744 -2.785547 -4.232727 -3.285371 -2.554309 -2.193125 -3.749214 -3.298816 1.162927 -2.005156 3.938949 -0.3036513 -0.868431 -0.4961893 0.8797007 -4.979314 1.859623 -0.5429865 1.812826 -0.9250522 0.5615488 -1.883745 -5.402902 -0.8352968 0.5874644 -0.18729 -3.399204 -4.164351 -3.194121 -1.319758 -1.919284 -3.488309 1.476749 -4.855332 -2.686744 -0.07862233 -3.597948 -1.554576 -2.108092 -2.884932 -4.865075 5.377793 -3.314838 -1.613046 -4.136899 -4.625972 -1.186853 -4.246724 -1.581799 -3.427412 -1.032567 -2.705667 -3.356395 1.876456 0.8717064 1.10187 -1.508224 -4.899134 -5.041382 -1.480515 -4.073496 -1.843611 -0.5239022 -1.719682 -1.79259 -0.6667119 -2.750304 -4.812685 -0.9074051 -3.765322 -0.2359585 -4.046556 -3.364995 -0.59735 -4.61515 -0.8178224 -0.04888682 -1.132294 -0.4243918 -0.8947392 0.8066511 -4.23665 -3.840593 0.3466097 -1.699045 -2.628235 -2.048849 -4.345358 -5.533209 -1.525919 -0.537554 -1.404733 0.5040307 -2.885149 -3.266704 0.06261405 -3.835514 -1.170928 -1.986929 -3.275588 -0.05298346 -3.974827 -1.158202 -0.07875714 -1.529659 -1.708644 -3.8011 -0.5133427 -3.539891 -2.279422 -1.709072 -1.167675 -2.420898 -1.265196 -1.341542 -0.4815952 0.606831 -5.378347 -2.51882 -1.718568 -0.2277283 -0.726778 -1.574206 -2.836035 -0.9745649 -3.958678 -2.216348 -0.2233568 -2.190615 -3.557556 -4.125145 -2.6899 -0.6612283 -2.600094 -5.466961 -2.499561 -5.034228 -0.8529767 -2.827713 -3.75138 -3.031812 -2.229174 0.7620879 -4.130071 0.8633496 -2.829202 3.949965 -2.319288 1.046502 -5.569465 0.3746266 -0.4609267 -0.9358158 -2.625333 -0.7622323 -0.05581422 -4.362073 -3.242432 -3.252837 -1.191421 -0.2648115 -3.306811 -0.5692408 -3.049169 -4.171441 -3.20388 -2.74157 1.090723 -0.5459511 -2.855355 -1.361425 -2.373969 0.2780851 -4.311452 -3.845157 -4.814163 -1.708006 -2.05007 -1.604675 -1.14408 -4.287917 -4.495795 -4.301595 -2.658049 -3.564359 -2.882078 -3.831142 -0.9774912 -4.083053 -0.3092524 -1.457328 -2.055481 0.175508 -2.853648 -1.479184 -0.5632908 0.6922778 -0.8681149 -2.049226 -3.376375 3.609082 -0.4122554 -1.655172 1.47514 -1.195109 -1.614176 -1.905468 -0.7656602 -3.674282 -3.000289 -2.002323 -3.604205 -2.172651 -2.169799 -1.443737 -2.081766 -1.165231 -0.9172684 -4.930382 -2.708546 -5.470289 -2.073445 -1.104684 0.1954601 -3.919945 -2.52707 -3.117891 -4.878042 -6.259803 -2.691865 -2.312051 -1.155105 3.738287 -3.748899 0.7486545 1.120893 -5.232175 -1.564201 1.278464 -0.7468864 -5.046283 -0.4687896 -3.198615 -2.100682 -4.254393 -3.777101 -2.826479 -3.033553 0.4960803 -3.263642 0.8830223 -2.016469 -3.802542 -4.919457 -3.234434 -2.652254 -3.974838 -1.730477 -2.95734 -2.551773 -2.11781 -0.9259905 -1.593085 -3.297201 -3.266553 -4.181992 -2.515286 3.602478 -0.8883068 -4.894753 -1.862223 -2.062114 -3.354765 -2.404462 -5.186149 -6.81337 0.656127 1.561323 -5.327321 -0.6769403 -0.5809825 -1.134671 -0.09122945 -0.6921912 -0.6145014 -1.702291 -2.711917 -0.4288001 -2.779347 -0.1477922 -0.9528547 -2.495224 2.672591 -4.075573 0.3564497 -1.378047 -1.14054 -4.425221 -2.676465 1.003598 -0.04316818 1.557202 -3.750574 -4.029754 -2.092436 -1.656754 -4.584009 -1.57537 -0.5550336 -2.811389 -3.848177 1.042814 -1.590115 -2.055492 1.188359 -0.4402141 0.3804253 -4.435268 -2.117094 -1.683994 -4.292541 -3.207273 -2.011189 -2.23493 -1.402877 -3.511304 -0.1616897 -2.956745 -2.210036 -1.603263 -2.121256 0.6066712 2.948018 -2.334078 -0.2078525 -1.529612 -4.396092 -2.269996 -1.041994 -2.899169 -2.102777 -3.577454 -2.410195 -3.610618 -3.298062 -5.901989 0.4998691 -3.785305 -0.9807216 2.338418 -2.754662 -2.676374 -3.753924 -1.922578 -2.346617 -0.6107821 -2.89708 -5.479115 -2.945828 -3.141049 -2.531719 0.5589352 -3.743778 -5.065091 -0.9797122 -1.818107 3.536344 -5.316394 -1.066777 -2.920755 -3.724122 -1.554527 -1.857552 -0.8068236 -0.9773077 -0.7542042 2.30078 -1.341915 -4.00625 -1.640432 -1.52448 0.1533088 -2.214716 -1.934612 1.809007 -2.905317 -3.348215 -4.295573 4.793656 -3.689092 -2.418014 -2.60443 -3.942153 -2.920717 -1.646185 -3.519603 -3.389584 -1.711767 -2.585343 -1.769612 -2.449602 -1.366436 -2.492043 -4.050083 -5.120299 -3.46601 -1.954951 -4.250782 1.259095 -2.377874 -4.131659 -2.068856 -1.353669 -2.593569 -2.81315 -1.500476 -2.539685 -3.940211 -1.319755 -2.42286 -2.517102 -1.384002 2.217302 -1.532898 -2.830865 1.295603 -2.931923 -4.371249 1.479221 -0.7804614 -0.5932243 -3.763555 -1.330501 1.521152 -0.8547398 -0.3005181 -2.463502 -0.7260228 -4.003346 -3.531401 1.302128 -0.1677667 -2.051179 -0.2201201 -2.287253 -0.155712 -1.270855 -0.3524056 -4.468547 0.8096349 -0.5163504 -0.04260183 -2.518801 -2.078545 -4.359668 -4.512446 0.8998696 -4.461303 3.034547 -3.232148 0.1082557 -1.1597 -4.030404 -2.259799 -0.8515672 -4.786225 -3.674552 -1.607105 -3.83906 -2.135162 -1.545573 -4.430212 2.869265 2.338562 -6.32154 -0.2021803 -3.779352 -3.146466 -4.49418 -3.000169 -2.311805 1.643194 -0.09216282 0.8915959 -3.539419 -0.506113 1.272429 -3.307176 -3.227887 -3.093886 -3.534808 -1.746097 -2.178019 -2.414348 -2.231895 -2.664643 0.5090585 0.1744757 -3.156113 0.009643544 -2.043194 2.269554 -2.088146 -1.092083 2.331875 -3.620918 -2.262412 -3.555529 0.4476914 -2.720384 -1.202338 -1.383514 2.691426 -3.309995 -4.387503 -3.933424 -3.286474 -2.453181 -3.146187 -1.312876 -0.8258736 -4.160829 -3.336902 -3.165738 -0.3858162 3.994189 -4.343136 -0.1630869 -3.943541 -3.964783 -5.613916 -3.345556 -4.017215 -5.678938 -3.952893 -3.665409 -0.08492661 -2.38578 -3.040811 -5.334067 -2.73871 -5.384586 -0.4456394 -3.07734 0.1584301 -0.1609471 -1.185902 -0.4682 -2.881909 -1.80744 -0.2333599 -5.635987 -2.154539 3.20203 -0.9643154 -2.747853 -2.471026 -2.654503 -4.473897 -5.539195 -3.310767 -2.42348 1.463067 -0.921059 2.190817 -0.2537583 -2.312225 -4.579592 -3.868103 -3.880375 0.3550712 -4.423336 0.5880066 0.5175149 -0.9740278 -0.7002975 -4.539687 -1.349911 0.4320679 -1.262317 -2.942032 -1.468634 -2.784788 -5.568678 -2.187954 -3.329011 1.713792 -1.837206 -4.798448 -1.090791 0.2836925 -4.178814 -3.52516 -0.1398208 -5.438055 -3.517169 -3.451159 -2.523493 -4.31869 -0.9548255 -1.00114 -4.243763 -2.471611 -0.8076953 -3.497438 -1.687209 -4.063734 -3.181126 -2.449983 -2.198706 -1.063244 0.3192923 -3.753592 -1.090358 0.0385046 -3.147724 -2.537305 -3.834481 0.392152 -4.211376 1.043995 0.9495738 1.049461 -0.985075 -2.156358 -4.720231 -3.251744 -1.036003 -0.4375153 -2.958435 0.1075846 -3.135595 -1.660608 -1.084016 1.009361 -0.5385301 -0.1984649 -3.280344 -2.523539 -1.79532 0.6014302 -1.777225 -4.669899 -1.973166 -1.16652 -2.039815 -1.867775 -3.306544 -3.558051 -2.148856 0.139599 0.1982967 -3.506417 -1.225952 -0.9722093 -1.458645 2.579034 -3.955165 -3.713845 -4.712733 -2.881967 -4.746302 -4.805618 -4.624899 3.679526 -4.502047 -1.388909 -0.05301533 -1.04691 -3.100509 -1.404912 -1.154902 -1.517001 -3.164182 1.407734 0.9203238 0.3189408 1.388276 -3.502338 -2.575866 -1.222 -3.596694 -1.493575 -3.203176 -1.862443 -5.617139 -5.758276 0.1157592 0.7947311 -1.511408 -2.920935 -5.4568 -3.471861 -0.07156929 0.04984338 -4.438519 -2.580348 -4.544814 -1.718172 -3.139886 -1.675924 -1.416047 -4.240788 -3.743126 -2.34455 2.499345 1.834771 -1.911323 -5.903805 1.361969 -0.9560528 -1.922309 -4.798959 -1.207781 -1.503999 -3.501468 1.276965 -4.104818 -2.84577 0.5995757 0.2834768 -3.93523 -4.54158 0.3891894 -3.275972 -2.095881 -4.410489 -3.669515 -2.873942 0.7711666 -2.547267 -3.245929 -2.809317 2.066645 -1.695446 -0.6251153 -0.6730689 1.877756 -3.117643 -3.011332 -2.617159 -4.473048 -1.490674 -2.270777 -2.741106 -2.975619 -4.620032 -1.956376 -1.363302 -4.003037 -1.235353 -0.8514202 -2.23656 -3.941711 1.966262 -1.818863 -1.894778 -3.007314 -1.95388 0.2739751 -4.017644 -2.259773 -1.750354 1.748023 -3.563718 -1.002837 -3.219664 -4.183806 -3.201092 -4.637205 3.143782 -2.184902 -0.1797049 -1.570965 -1.202933 -0.8134556 -2.629524 -5.315033 -3.483999 -1.457958 -1.567341 -5.591184 -0.6864395 -0.2475949 -2.468693 -1.653684 -0.9306117 0.9263812 -0.8781217 -4.242799 -0.3380681 1.392992 -3.001296 -0.2162054 -3.223151 -1.986375 0.4053522 1.061244 -1.245376 -0.1250548 -4.035336 -2.141892 -0.3920613 -2.562061 -1.190751 -0.899132 0.6732906 -2.555122 -0.6688977 -0.6471672 -3.007793 -3.302027 -0.786934 2.120128 -0.584874 -2.370876 -0.9898275 -1.795224 4.421837 -0.2580568 -5.332117 -0.7332291 -3.279767 -2.66214 0.1932637 -1.712209 -1.491094 0.13596 -0.3249145 -3.31152 -3.143571 -2.842453 -5.33793 -4.025497 0.3128172 -5.297641 0.08720055 0.09329654 -1.396232 -1.502716 -2.791799 -5.03928 -1.193525 -6.103477 0.9827765 -0.6431912 -2.98974 2.821874 -3.585928 -2.436983 -2.786718 -2.08577 -1.402126 -1.597521 -4.413513 -3.595508 0.5275197 -3.267437 -3.535972 2.716317 -1.915842 -4.607977 0.6102917 -1.463618 -4.402499 -3.121634 0.1436168 -2.145214 -1.923437 1.329836 2.973764 0.1868047 -5.458385 -2.506459 -1.164146 -0.1675499 -1.645163 -2.06531 0.1364096 -1.098147 -4.126729 -3.492134 -4.177207 -2.777914 -1.165875 -3.448451 -3.644648 -2.118457 -1.077161 -0.8610053 -1.681962 -3.836668 -1.465785 -1.676052 -3.190194 -3.34642 -2.917162 -2.867595 -2.718705 -5.342185 -4.593948 -3.756107 -3.612044 -5.011806 0.5157881 -2.073228 -1.398552 -1.205497 -2.169261 -0.005067274 -3.635646 -3.888237 -2.231432 -3.111349 0.2047447 -1.085651 -2.013299 -1.909948 -1.252325 -1.961289 -1.356291 -3.379588 -3.50399 -1.3809 -2.558244 -2.618927 -1.82275 -0.6023678 -1.67325 -0.4875731 -2.112972 -4.384644 -0.4944882 -4.883794 -1.786699 0.6122445 -0.2200708 -4.484676 -3.022472 -2.901676 -3.049468 1.441669 -2.358871 -1.93937 -1.797048 -1.787217 -0.3256425 -3.988084 -1.648064 -3.696634 -0.1045793 -2.660381 -3.418223 1.063845 -1.12739 -3.322595 0.4194061 -1.87737 -0.6489755 -1.699225 3.270037 0.6002115 -2.555064 -4.54525 3.751009 -3.819061 -0.6198833 -3.930205 -1.949241 -4.794127 -1.889405 -3.712104 -2.622386 -2.637078 -3.604771 -2.436602 -4.408664 -1.931891 -0.5246221 -4.954103 -0.7576354 -3.685032 -0.4803243 -3.743501 -1.650848 -3.800126 -2.354042 0.08129589 -2.728501 -2.646425 0.2615933 -0.6071172 -0.05331959 0.2388994 -1.521269 -4.562957 0.9564255 -4.513638 -5.255408 -3.044864 -2.710385 -4.466859 -1.98477 -1.35709 -0.9818602 -2.068978 -1.052668 -3.782122 -0.9886279 -1.894204 -3.930125 -2.813203 -3.345517 -4.511609 -3.98713 -0.6931374 -0.2386533 -1.632417 -2.444639 -2.752462 0.5146521 -1.744685 0.09828061 -4.100199 -0.06676098 -3.491455 -2.003841 -1.817692 -2.094255 -1.727055 -3.110148 -1.869924 3.931893 -2.02567 1.237006 -2.968254 -0.7481138 0.9206966 -4.190972 -3.955047 -0.9799094 -0.4745247 -0.2421497 0.5702834 -0.3409934 -3.590687 -0.2048452 1.301399 -0.2604296 -2.8365 -0.3900314 -0.7139841 -2.45501 -2.442251 -2.906833 -2.562804 -1.569655 -1.16192 -4.701918 -2.589672 1.389855 -2.326983 -0.9208232 -2.570956 -0.001259409 -3.465959 -5.124872 -1.508136 -3.151261 -0.6957977 -2.497795 -3.195125 0.129553 -1.252861 -1.025614 0.7809035 2.092992 0.2133866 -0.005288014 -4.827754 -2.210206 -3.380879 -2.063498 -3.461355 -1.543095 -1.762865 -1.857118 -0.351344 -4.162312 -1.482117 -4.508304 0.6418868 -2.410681 -0.561221 -2.893508 -2.947307 -0.6931937 -3.104682 -1.388492 -2.154525 -1.975325 -1.883903 -1.722474 -3.600043 -2.795282 -4.943278 1.345817 -1.675913 -2.657437 -1.795803 -2.379353 -0.3326937 -4.763986 -2.465054 -3.483191 -0.3641465 -2.422788 -1.265375 -3.839903 -0.749989 -1.072402 -2.951564 -2.42783 -5.634116 -1.178595 -0.1838848 -2.804085 -3.632976 1.063961 -1.605641 2.214822 -2.532343 -2.951777 -6.888666 -1.066767 -1.193774 -1.405501 -1.953679 -1.045526 -4.912393 -2.847606 -1.093143 -1.52529 -2.82392 -0.9430727 -4.597043 -3.071114 -3.338601 2.346365 0.8037472 -2.022495 -1.635474 -3.819089 -2.707854 -3.353184 -1.532427 -2.752076 -2.570283 -3.036244 -1.2154 0.7709275 -3.927595 -2.774428 -4.4252 -0.5443324 -5.65397 -3.200465 -4.612445 -3.011384 -0.5272625 -5.174755 -2.598733 -2.959199 -0.05051991 -3.749758 -4.930832 -1.290338 -1.35865 -1.222812 -2.15257 0.2630682 -4.288512 4.702958 -3.673399 -0.2421035 -1.732885 -5.148808 -3.030346 -5.486149 -0.6607637 -0.5035552 -5.368849 -2.722357 -2.364997 0.5237312 0.6183078 0.9230068 -1.880576 -2.442801 -3.570962 0.09057596 -2.678531 -0.7972003 1.419852 -1.450212 -5.104738 -2.032852 -0.8063509 -1.74188 -2.633275 -0.564693 -3.963734 -3.627976 -1.315079 -3.678351 -3.124714 -2.157953 0.9714802 -3.966974 -0.408778 -2.064151 0.2328079 -2.726011 2.387348 -3.028109 -0.6489124 -0.6506402 1.429872 -5.545223 -4.506769 -0.5829661 -1.189077 -2.470167 -4.991966 -3.834822 -2.068952 -1.11338 -2.550514 1.472329 -0.2003667 -3.777049 -1.87304 -4.437063 0.300361 -3.236991 -2.834472 -4.948345 -2.16928 -3.077919 -3.536584 -2.884199 -1.137407 -4.086551 -3.705802 -0.9269737 -1.893967 1.274163 1.371282 -2.52574 -2.604805 -1.567153 -1.458766 -2.754133 -5.217582 -1.696555 -1.291581 -2.085269 -2.247298 -1.88203 -1.117983 -4.027616 -0.4858535 -1.317584 -1.682462 0.4618195 2.04749 -0.9075606 -2.556298 -1.105402 -3.699082 -2.56568 -4.783978 -3.630767 -2.500267 -2.352291 -1.841858 -3.270458 -1.672319 0.008643111 1.382759 -2.113638 -0.9082706 -2.918686 -4.334951 0.8109555 0.6500732 -3.995394 -2.941915 -4.551445 -1.019673 -3.065525 -2.873746 -1.798141 -2.110078 -2.134317 -1.842856 -4.366602 -2.033798 -1.887188 -3.022854 -5.073497 -3.765955 -5.261675 -3.909601 -2.58277 -1.130335 -2.442324 -2.899137 -0.2125261 -0.6157443 -2.281486 -0.4430197 -2.706729 -4.383393 3.116776 -2.459663 -1.26012 1.049029 0.6250629 -1.240913 -1.808835 -2.363994 -0.3815302 -1.615446 -2.491329 -3.701371 -2.292317 -4.051396 -0.5691473 -3.314708 -2.227609 -3.448221 -2.744809 -1.409809 -3.569384 -1.608362 -3.212435 -0.5313749 1.625885 -3.714104 -1.681247 -2.004133 -1.264544 -1.684034 0.2201219 -4.703843 0.5337018 -4.070755 -0.3459432 -3.694397 -0.1340334 0.5566347 -5.683902 -2.161598 2.72379 -3.04838 0.8643613 0.4208063 -2.41942 -6.523192 -1.136423 -1.739942 -0.8172558 -4.957451 -2.730394 -4.401567 -4.227756 0.6745777 -3.216566 -3.291636 -1.188865 -2.127827 -3.742057 -2.712396 -3.934954 0.8308752 -3.465569 -1.835442 -1.83778 -0.9125668 -2.700584 -2.067202 -2.717812 -4.152367 -0.5040421 -4.610175 -0.3724981 -2.489997 -1.876311 -3.138242 -5.154502 -2.312111 -3.536796 -2.437894 -1.707388 -0.2007941 -1.409538 -2.523499 0.2750376 -2.740455 -3.37352 -0.5862242 -3.382967 -3.410844 0.5333596 -0.03642166 -1.459259 -6.200086 0.594881 -4.73813 -1.777743 -2.446727 -4.961718 -2.698332 -1.001587 -1.494975 -2.78144 -2.218009 -4.190485 2.104431 -5.833391 -3.029201 -3.554145 -4.22416 -5.232646 -2.203661 -3.052769 -5.326756 -3.486965 -0.4662863 -1.212529 -5.033761 -3.011537 -4.982491 0.996756 -1.334071 -4.456293 -3.906692 -4.873957 -0.669116 -3.66464 -3.809281 0.1838617 -2.812807 -0.4544147 2.635228 -0.7143143 -1.367358 0.1281384 -0.1726069 -7.083545 -3.064374 1.878114 -3.902071 -3.713299 2.971579 -3.025126 -4.255461 -2.513672 -2.693189 -3.902497 -0.1173621 -4.666558 -3.491781 -2.461062 -0.9548634 -1.8187 -3.202418 3.260083 -3.376073 -1.285246 -1.36333 -2.213669 -1.990029 1.875503 -2.436047 -1.729615 -0.9162671 -2.167084 -2.666651 -0.4016654 2.204662 -1.848612 -2.091479 -2.397811 -0.7035647 1.117581 -2.773997 -2.087971 0.9661292 -3.473334 -1.656584 -1.527119 1.004416 -3.392961 -6.89534 -0.4935789 -1.549299 -2.489706 -2.047029 -1.311568 -4.87638 -1.81128 -1.186591 4.193189 -2.995913 -1.224055 1.902488 -1.17519 -0.3386825 -2.668651 -1.370079 -0.7977551 0.9152963 -2.292397 0.596328 -2.831143 -2.810501 -2.645051 -0.2984598 1.073244 -2.293578 -2.842979 -2.547957 -0.8428516 -2.396249 -2.865466 -1.27031 -2.027909 -2.877899 0.03466249 -2.530316 0.07577702 1.819941 -5.425535 -0.09143995 -0.6941555 -4.592451 -4.753534 -1.492937 -2.809913 -1.940851 -2.428358 -1.631494 -0.8172574 -0.2818059 1.630814 -2.60781 2.527937 -2.404554 -0.7290103 -4.27055 -3.32476 -1.479976 -1.472795 -3.900728 -1.917927 -3.982028 -3.984278 -3.863827 -2.351509 -0.6587018 -2.464603 -3.228953 -1.470411 -1.263303 -1.753652 -1.041439 -2.106347 -2.060604 -4.282308 -2.107519 -0.7205764 -0.3934055 -0.8675413 -3.709899 0.2597346 -2.64479 -4.277956 0.7496275 -6.310742 -1.484393 -1.468023 -2.298196 -4.163797 -2.231271 -0.8084406 -2.907908 -2.357229 -3.04555 -0.1370557 -0.3509599 -0.5850453 -3.307782 -2.073748 -1.481746 -1.346692 -0.6303378 0.8930662 0.2297423 -1.72205 -0.2346113 -3.156613 -3.730175 -0.3300743 0.4541197 0.1049067 -3.476024 -5.924513 -0.04568552 -0.7922832 0.3221819 -1.533346 -3.362324 -1.991772 0.152554 -0.7654718 -1.829051 -4.02041 0.6729568 -2.842477 2.427323 -3.450396 1.72439 -3.473327 0.1083078 -2.178678 -3.299608 -0.3972045 -1.903437 -1.721863 -1.527411 -3.137494 -1.009294 0.5564917 -0.7653426 -2.86605 -3.806751 -2.79633 -5.883587 1.564595 -3.179199 -2.284533 -4.593564 -1.147118 0.3698761 -3.356167 -3.287566 -6.178593 -3.081685 0.1708301 -4.656157 -3.595869 -2.243554 -1.961087 -1.005061 -3.014851 -2.504852 -3.383349 -0.7654727 -2.180078 -5.235035 -5.104563 -5.801708 -3.737798 -3.749154 -3.235867 0.8108299 -5.577055 -2.855386 -0.1664775 -3.107219 -1.309115 -1.046658 -3.860636 4.828516 3.354971 -7.512749 -1.9261 0.1475784 -0.6697243 -2.890846 -2.962471 -3.368076 0.1613094 -0.6038602 -1.164717 1.841488 -1.60949 -2.346982 1.354622 0.6807687 -5.133069 -2.459786 2.490779 0.4522596 -3.691341 -1.884591 0.7252291 -1.774331 -0.6353176 -2.346183 -4.130226 -3.986614 0.2817837 -4.092302 -1.014352 -4.294274 0.6977684 -0.9212925 -4.843491 -3.813093 -5.376918 -2.196459 -0.413511 -2.420071 -2.787562 -1.337654 -0.4408438 0.3437527 -2.579303 -1.468205 -1.673411 -2.247546 2.903938 -3.822563 -1.206811 -3.541756 -2.07302 -0.4703087 -3.173873 -0.2304704 -0.8581372 0.00366943 -3.800944 -4.006908 -2.470155 -2.074511 -0.4658978 -3.227547 -0.170635 -5.347755 -3.097609 -4.488917 1.1197 -2.551458 -3.165739 -3.570111 -5.239233 0.3331873 -2.084313 -3.305533 0.6627395 -2.5813 -0.5539076 -4.491096 -2.202088 -4.395715 -3.489708 -3.307515 -3.459776 -1.154811 -2.221082 -2.809608 -5.081303 -1.539828 -0.5641416 0.4202415 -5.455619 -1.359315 -4.297481 1.043867 -0.2199769 -1.906844 -3.926481 -3.292251 -2.297845 -4.142636 -2.172274 -0.8792101 -2.680604 -2.914395 -4.410944 -3.72245 -4.712408 -2.761808 -4.705221 -3.33002 -1.052256 -2.450205 1.205063 -2.481127 -2.051412 1.522468 0.195613 -4.406899 0.5478795 2.116325 -2.865027 -3.232092 -1.921083 -2.867534 -0.5743358 -3.691537 -3.041278 -2.441201 -1.395457 -2.497145 0.9307089 -1.801504 0.86957 -1.824453 -0.894915 -0.8267835 -0.2496037 -2.348191 -0.8176827 -4.312498 -2.212701 -2.097884 -3.185772 -2.991997 -3.854691 -1.431179 1.755957 -3.430635 -2.234308 -3.925277 -2.74665 -2.073038 -3.112953 -3.777719 -2.569793 0.2953326 -3.959249 -0.4921196 -4.138555 -3.31875 -2.218282 -4.55971 -1.03498 -3.623228 -2.21663 -2.683773 -4.239563 0.5908998 -3.472122 -2.642672 -0.9690988 -2.543238 -3.058479 -4.547841 0.7714114 -4.862243 -1.352452 -4.021157 -2.573843 -0.02035141 -5.129594 -3.914217 -1.464389 -0.9138874 -0.6775951 -3.781209 1.510943 1.749221 -4.188811 -3.440253 -2.733404 -3.41763 -3.310001 -2.117445 -4.06733 -0.6904772 -1.57624 -2.358354 -0.1886479 -2.603798 -4.65823 -0.02753509 -0.1297403 -0.5741705 -4.495556 -3.616777 0.14353 0.1119096 -2.777964 -2.66181 1.74922 -0.4847915 -1.329758 -4.096563 -0.3273932 -2.764063 1.452917 0.1528129 -5.402877 -2.450947 0.4367642 -3.028581 1.945495 -1.89674 -4.04012 -1.109718 -3.584364 -3.154063 -3.992922 -2.869607 -0.6762027 -1.638805 -4.636722 -0.4418541 -2.494405 -5.048945 -3.424555 -2.825567 -1.931486 -1.460938 0.8857999 -1.913407 -4.017384 -1.199016 -2.920504 0.3533732 -3.565436 -3.021105 -2.946993 -3.920448 -2.610386 0.1586157 -3.29215 1.039748 -4.230735 -3.145478 -0.3821782 -0.7916154 -2.639902 -1.989559 -1.875254 -4.608269 -3.399415 -0.330003 -0.02220331 -5.451395 0.8874686 0.632753 -3.731123 -0.7491627 -0.4583174 -4.094072 -1.337711 -2.551449 -4.834969 -3.037804 -0.2982359 -3.479155 -3.105702 1.92779 1.523496 0.2231782 -2.940312 -4.833244 -4.134896 -3.166645 1.491552 -3.114097 -0.6676921 -2.789782 -3.987268 -3.211557 -2.437199 -3.200956 -2.019663 -2.848897 -1.11302 -0.9699048 -2.733066 -3.390256 -3.883275 -0.05572314 -0.3260243 -0.322496 1.495821 -1.618327 -1.848217 0.2649256 2.137324 -4.486959 -5.633286 3.243656 -0.5179102 -4.194548 -2.880145 -4.589346 0.9210636 -3.050635 1.761728 0.6498483 -0.3580343 -2.15307 -3.615378 -5.396414 -1.585573 1.130342 -3.260855 -1.505757 -3.243643 -1.636027 -3.250717 0.1534396 -1.775728 -1.350738 0.2299292 0.2112826 -0.1824117 -3.379542 -1.82904 -4.647667 -2.987403 -1.568772 -3.133557 -1.227561 -3.214934 -3.755421 -0.03780536 -4.740813 -2.586181 3.376276 -2.098515 -0.5930003 0.9914686 -0.6976064 -1.796023 -2.544377 -2.119581 -4.634257 -3.828906 -2.150042 -3.326932 -2.935482 -5.119126 1.509308 -4.196651 -2.109818 -1.087751 -0.6266334 -1.981091 -1.672369 -3.867756 -2.43802 -3.269671 -2.076485 -2.087175 -1.213115 -0.6965154 -2.630514 -3.306925 -1.233653 -3.69525 -3.062197 -0.9813797 0.3527956 -4.921677 -3.716531 0.1252684 -2.163235 -1.875565 -3.66247 -2.492293 -4.095358 -3.961092 -1.77459 -2.879848 -2.265534 -3.624261 -0.4833029 -0.1636098 -1.764598 -3.550748 -1.197332 0.2704471 -3.750438 -1.551083 0.8430297 -0.7814782 -3.479341 -2.204508 -3.559927 -3.297522 -1.108544 -3.89386 -1.15532 -3.133844 -1.837184 -2.80474 -2.168594 -0.07864477 -3.236604 1.022612 -5.236767 1.718237 3.209363 -0.337658 -1.789624 0.6637975 0.8029074 -3.622432 -0.03396618 -5.023898 -5.170045 -3.671046 -2.247271 -3.221444 1.936887 -2.649988 -2.428839 -3.233647 -5.703218 -4.381668 -4.602294 -2.317507 -2.969288 -1.908161 -2.764807 -1.731908 -3.520592 -2.981832 -1.31286 0.7673841 -0.7442655 0.5280322 -3.44845 -2.400218 -1.159078 -3.331482 -4.891683 -6.112926 -4.825446 -4.428958 -3.060504 -0.7380102 -0.003143583 -3.644381 0.7711776 -1.48556 -0.3173005 -1.520081 -0.427815 -5.511298 -0.9148564 -4.608281 -4.741319 -2.910337 -2.434134 -0.5989302 -2.255325 -0.461923 -7.470622 -1.307496 -2.262414 -2.825182 -3.048361 -2.498498 -2.410433 -1.522514 -1.739152 -1.239634 1.976057 -1.990561 -4.07576 -2.272149 -1.66164 -4.347275 -2.03789 0.1205499 -3.350597 -5.378266 -3.802154 -4.024744 -3.644478 1.851886 -3.8749 -4.413586 -4.421367 0.3193511 -1.116529 -2.497688 -4.210924 -6.012395 -2.552611 -1.190593 -1.152184 -2.420885 1.752138 -2.637858 -2.463935 0.6403972 -2.31416 -1.50152 -1.844556 -1.088339 -2.747249 1.04937 -4.099899 2.168429 -0.6805481 -2.724008 2.855176 -1.569077 -1.463232 -2.320231 -3.669502 -2.558366 -2.985762 -3.850702 -1.07139 -2.23057 -4.552365 0.0323238 -4.304875 2.55491 -5.407189 -3.876906 -2.989666 -2.420329 -2.428448 0.8204113 0.1548432 -2.236793 -1.542463 -0.8216587 -3.956022 -3.338071 -1.284376 -2.653443 -1.97899 -1.11915 -1.564734 -3.195595 -0.1461235 -2.789721 -2.7658 3.69864 -0.6920636 -2.280607 -1.945785 -0.04644261 -5.77437 -5.698903 -3.064037 -4.198074 -4.213231 -4.148365 -1.903364 -3.15714 -0.3361669 -2.051554 -3.088703 -3.115706 -3.689126 -3.897052 -0.1019722 -3.673418 -0.9660856 -1.672443 -0.2646666 -1.58071 -3.187537 1.552441 -2.048465 -3.029757 -1.839866 -6.383413 -2.196157 -1.071681 -6.030304 -3.058546 3.807707 -3.722996 -3.855425 -2.755179 -4.722651 1.152425 1.009402 -3.921857 -1.956832 -5.060092 1.098996 -3.16467 -4.893403 -1.164266 -2.589832 -5.210384 -2.261458 -2.956708 -2.874727 -0.9365802 -2.914049 2.737232 -4.660533 -0.883598 -2.566522 -2.602078 -0.4066589 -1.939866 -1.386423 -4.412451 -1.881827 -4.788067 -3.216731 -4.799974 -0.9520383 -5.262669 0.1334075 -4.344841 1.039936 3.413483 -2.731206 -2.500236 2.519388 0.4841239 0.1624285 -1.539237 -2.7444 -3.271186 -1.928439 -3.291205 -1.795708 -1.199993 -2.135592 0.6028726 -3.636374 0.04329577 -0.2006299 -2.273918 -2.729714 -1.713584 -2.736618 -3.792579 -1.473639 -5.327549 -0.2646067 0.4071926 -6.525919 -1.319421 -1.930327 -2.11961 0.3976931 1.650137 -2.464627 -1.856816 -2.087157 0.7791023 -2.146083 0.4065235 -1.849575 0.4767244 -2.467323 -5.469603 -0.4709607 -3.015458 -3.131712 -1.672646 -2.702437 -3.478034 -0.6904826 -4.102273 -2.235123 1.025199 -1.751979 -2.506273 -4.139081 0.1727028 -3.29177 -4.200066 -1.46445 1.843431 -2.763547 1.410824 -5.801138 -2.462791 -0.4146984 -1.900826 -0.5817119 -0.4784938 -3.760008 -3.345106 -2.563065 -3.319172 -2.275156 -3.889232 0.05207142 -1.70864 -2.018293 -0.2512389 4.516945 1.339507 -2.201264 -4.057027 -3.129274 -4.090254 -2.759688 -0.8413391 -4.84121 0.2113414 -1.205911 -1.607328 -4.193394 -0.1908261 -1.663964 -3.978659 -2.470311 -3.059309 -3.311542 0.09733065 -3.489442 -2.541409 -1.066133 -0.3355547 -3.88471 -4.386374 -2.773885 -0.1514137 -2.093968 -3.80346 -1.080711 -0.9124973 -1.821229 -0.5297615 -1.707999 -2.683235 -3.425045 4.444563 1.050832 -0.4198675 0.02712594 -2.19176 -1.931126 -1.04518 -1.933806 -2.06585 -3.560825 -2.014772 -1.178117 0.001571883 -4.510199 -4.439394 -2.274487 -0.3485265 0.008351287 -1.766706 -2.542418 -0.3516247 -1.946398 -0.8140851 -2.084245 -0.2719626 -3.570689 -1.851711 -2.140608 -3.622435 -2.256217 -0.9554064 -2.113797 -2.370121 -5.299616 -1.233456 -2.783222 -0.7593315 -1.264037 0.02324183 -0.9601833 -1.066016 0.3974643 -4.350575 -2.41745 -0.6383809 0.0852099 -6.180239 1.523971 -0.01252022 -4.641778 -1.273561 -2.529578 -3.395581 -3.619403 -0.3212919 -2.24652 -0.3370527 -3.886866 -1.096753 -2.141323 -3.634236 -1.806024 -0.8378069 0.1514956 -4.090606 -1.242715 -2.940985 -1.21686 0.7149389 -0.937048 -1.709244 -3.3425 -1.194489 0.9154839 -2.736573 -1.489984 1.16612 -0.1998 -2.230178 0.3576726 -4.050649 5.942362 -0.07519612 0.1352453 -1.98441 -3.624964 -3.976542 -4.537321 -3.754299 -1.263921 -3.568068 -3.884216 -4.161675 -3.753606 -3.138255 -2.948086 -3.889453 -1.378881 -1.411606 -2.736114 -0.07845227 3.33134 0.1045497 -3.733287 1.537581 -3.656331 -3.809041 -0.1865432 -3.437601 -0.5943342 1.040746 -2.520645 -4.502436 -0.4677635 -0.6859368 -0.6670305 -3.286536 -0.4183981 -4.301894 -4.485752 -2.398766 -2.750228 0.124516 -3.19424 -0.67138 -2.251942 -0.1071529 -2.068319 -0.5542971 0.4509311 -2.84321 -4.001713 -3.561479 -3.408946 -4.021688 -1.655173 -3.558415 0.6395554 -0.2686377 -2.814602 -0.7336182 -4.401412 1.736733 1.843632 -5.606189 -2.562739 0.1991838 -4.207245 -4.070238 -3.462836 0.2630523 -2.75981 -3.143401 -3.178205 -2.550681 -3.389729 -5.653196 -3.432316 -3.507751 0.5212554 -3.80813 2.004155 -1.907809 -1.519726 -3.6608 -2.376849 0.2859527 -0.0465893 -4.911511 -1.511971 0.2050075 -1.572055 2.046534 -2.349186 0.3132076 -2.554743 -3.419684 -4.326046 -2.105727 -4.582165 -0.8215382 -2.769941 -3.599199 -1.718826 -2.067673 -2.270749 -3.510739 -3.864247 0.8750983 0.217167 -1.954773 -2.974333 -1.703037 -2.718616 -4.247642 -2.397193 -0.3192414 -3.893623 -4.026959 -4.601645 -2.028325 -0.8590038 -5.125576 -0.1381069 -0.6955807 3.279397 -0.2575205 -4.397452 -0.7757874 -2.769694 1.572535 -2.10115 -3.850196 -2.398514 -2.404328 -2.189157 -3.48668 -2.194337 -5.547634 0.549954 -0.570287 0.3272004 -0.9845025 -2.778325 -2.355923 -0.5097862 -1.651488 -4.40249 -0.0997049 -0.1101261 -3.243108 -1.261657 -1.477318 -3.623805 -2.742803 -1.295024 -3.632239 2.38491 -3.137302 -2.367005 -2.411946 -3.684857 -3.144585 1.167838 -0.337515 -4.222328 -2.304471 -0.7952037 -1.647374 -2.805119 -4.609423 -1.38976 -1.412886 -0.3182774 1.888405 -1.366646 -4.469798 -5.546319 -4.125457 -5.189328 0.04164968 -5.111467 -2.608383 -1.445133 -4.226399 -2.834469 -2.334559 -1.285477 -1.136579 -5.5419 -3.671646 -1.609973 0.8097396 -4.83484 -1.106184 -0.4708801 -2.946084 -4.096666 -1.271284 -1.346573 -3.807029 -1.813347 -4.583658 -0.5357164 -2.0548 1.179119 -0.8500679 1.51128 -2.69675 -3.878736 -4.758033 -1.140139 -3.360367 -2.6717 -0.7894712 -5.288783 1.15913 0.09074104 -2.185546 -2.765079 -5.887557 -0.7282322 -3.617085 -6.016766 -3.882632 0.6875376 -3.235898 -2.390039 -1.192387 -3.515718 -0.289295 -3.130348 -3.825181 -3.312123 -5.055654 -3.278361 -3.581137 -0.06166356 0.07488862 -1.898597 -3.71006 -2.652001 -1.619116 1.649808 0.824719 -3.024952 -5.04206 -3.147344 -1.598773 -0.5948099 -2.390836 -4.468689 -3.2662 -0.124233 0.9746994 -0.6030508 -2.397693 -0.6398259 -2.730006 -2.320628 1.013484 -1.479439 -3.596746 1.879217 -4.056041 -2.500395 -2.800275 -1.559237 -1.472908 -1.195899 -2.610697 -1.200733 -3.629467 -2.891071 -5.17174 -5.749356 -4.278497 -1.32733 2.859378 -3.978335 -2.845186 -3.645592 -0.8432566 -3.806646 -3.755001 -0.9967594 -1.74582 -2.258134 -5.893255 -2.470779 -1.448844 -2.383931 -4.555264 1.060286 -2.475452 -1.421695 -1.298867 -3.943261 -2.038057 -0.1820507 -2.729297 -0.956633 -1.856802 -2.58493 -3.926021 -1.187746 2.871533 0.006211605 -0.6601261 -2.796024 -4.735694 -3.04858 -1.656837 -4.038939 -1.89282 -2.812606 -3.968116 -1.58787 -3.781031 -0.6193836 -3.885502 -3.030131 -0.9094209 -3.98051 0.3637656 -4.340316 -1.127166 -4.431013 -3.442196 -0.170693 -0.3524443 0.06145054 -2.073076 -3.938416 -0.9345048 -3.531106 -5.087674 -2.796156 -5.280056 -4.52728 -2.874249 -2.100206 -3.759392 3.186831 -2.493385 -0.4655716 0.6972958 -1.623755 -2.004359 -0.8600956 -3.170163 -3.064801 1.568198 -2.239823 -1.122546 0.3927611 -1.614101 -4.43357 -5.212245 -1.356513 -0.935489 1.829302 -3.791696 -2.034697 -3.910184 2.625401 -3.645844 -3.53721 -1.134836 -2.095714 0.07167228 -2.312091 -3.669168 -4.370347 -1.725884 -1.558079 -2.856171 -1.786296 -2.777775 -1.297996 -2.90811 -4.125234 0.3883944 -1.2525 -1.734928 -1.027358 -1.298103 -4.170896 -4.72803 -2.814866 -3.996438 -4.027669 -1.735973 -4.899554 -2.579128 -0.8522134 -6.38507 -2.158461 -4.893054 -1.825527 -1.589944 -4.891059 -2.617171 -2.360555 -4.837432 -0.4567854 -1.528458 -1.451405 1.065364 -0.2390383 -5.224323 -0.2733414 -2.935665 -2.564013 -0.8854088 -2.238534 -3.241049 -2.768187 -2.84074 -1.691249 -5.040991 -0.3881907 -1.071187 -2.867 -1.468499 -4.107967 5.905087 -5.137639 -2.570289 -0.8082065 -0.9534346 -3.785344 -3.640624 -5.252603 0.1968086 -2.307593 -3.179115 -2.759924 -3.411205 -2.494742 -4.145816 -1.272828 -4.674023
CATHEDRAL -4.101293 -0.7355592 -5.748889 -2.442382 -2.49073 -0.1616777 -3.26803 -0.5546815 -2.097883 -3.482852 -4.723545 -2.061552 -4.434315 -5.059155 -0.4113413 -4.523292 -2.841589 -4.928709 -4.503588 -4.742356 -1.492169 -0.4823878 -4.555732 1.606605 -3.204767 -5.419842 -1.199515 -4.386387 -4.14821 -5.857783 -3.06222 -0.1463048 -2.004347 -4.882391 -1.306711 -0.2762307 -0.7754701 -3.763211 0.2179958 -3.241183 -3.174151 -2.263361 -0.9969837 -5.205626 -2.334413 -4.297765 -3.466878 -4.887345 -4.517138 -3.27859 -1.686548 -1.717135 -5.213762 -6.055503 -3.047914 -2.016533 -3.540106 -1.257044 -5.096335 -1.788193 -4.954666 -2.243341 -5.280429 0.8336315 -7.229086 -5.179105 -4.73918 -4.753942 -3.768441 -3.449075 -5.304832 -4.30865 -3.074333 -3.838338 0.6426542 -5.674006 -3.757103 -5.657933 -1.438344 -3.62851 -0.4607287 -1.170907 -4.780087 -2.671542 -5.769187 -2.161461 0.6505085 -5.150266 -3.668912 -0.9180683 -3.459867 -3.324364 -2.585504 -1.53552 -4.745718 -3.77594 -3.745541 -0.8219596 -2.263036 -0.9289895 -4.764369 -2.402354 -4.836592 -3.343824 -2.948718 -5.122681 -4.180317 -2.187423 -5.361326 -4.67859 -3.388813 -1.873661 -4.331686 1.568709 -2.176447 -1.127196 -4.854166 -2.972897 -1.099165 -3.787013 -6.564389 -4.46349 -5.526571 -1.127944 -7.137294 0.3495517 -5.213075 -1.599805 -2.258651 -4.275213 -5.299917 -1.879187 -5.025208 -2.977565 -5.164854 -1.993274 -2.613888 4.675891 -4.60669 -3.358546 -5.302217 -4.16119 -3.140503 -3.857225 -2.605803 -5.522583 -2.751141 0.987115 -2.53048 -5.073042 -1.741972 -4.041183 -3.052868 -3.122102 -7.0925 -6.56046 -3.811049 -4.442814 -3.84573 -4.004943 -3.988668 -4.625642 -6.533263 -4.86657 -5.391511 -5.076293 -2.549095 -2.85634 -5.702148 -2.50985 3.248653 -5.236093 -4.93948 -4.815595 -1.016964 -4.60542 -0.09678353 -7.466143 -6.488502 -6.746168 -1.709584 -3.041533 -5.710031 -3.3436 -4.157802 -4.799059 -3.567339 -8.037538 0.009744363 -4.160224 -3.597442 -0.4319623 -6.913938 -1.156009 -6.444093 -4.750761 -1.298418 -2.445726 -3.298603 2.975132 -2.608546 -1.950301 -3.437143 -2.471538 -4.077019 -3.710603 -0.4783577 -0.3138679 -2.005232 -3.378309 -0.9220357 -2.604225 -1.382614 -3.358155 -5.069314 -2.472408 -4.133992 0.5373629 -1.684807 -3.862269 1.411228 -0.9168956 2.301793 -5.902591 1.086424 -2.85359 -4.837362 -1.264287 -2.159037 -4.023281 -2.944561 -6.425115 -3.757667 -2.321659 -1.090556 -1.042442 -6.819845 -2.884387 -0.8860156 -3.999717 -1.161672 -1.880395 -6.083524 -0.7982559 -0.7874845 -0.7030402 -3.874657 -2.581131 -2.689916 -1.257743 -3.274207 0.5253255 -2.263182 -4.409998 -3.53952 -4.256248 -2.639129 -4.919657 -2.157949 -0.04767918 0.966467 -5.292536 -1.84586 -3.05469 -0.6085371 -0.09916019 -2.265346 -3.227371 -3.843547 -0.3097495 -3.723211 -3.161064 -0.002698903 -2.473863 -3.602904 -4.451151 -0.1541169 -3.451409 -0.8377384 -4.461359 -4.012345 -2.173027 -3.188881 1.17707 -2.70475 -2.714384 -4.715662 -1.178938 -3.767842 -1.446193 -5.434043 -0.1138446 -0.737344 -1.06111 -5.010482 -1.659203 -4.917783 -5.705933 -4.321622 -3.022111 -7.683608 -2.027537 -4.876068 -1.98465 -2.986304 -5.92664 -2.077253 -2.610564 -0.919558 -0.903568 -1.300536 -2.479062 -3.087677 -3.043766 -5.424496 -6.119997 -4.821479 -4.554304 -4.161216 -4.591417 -1.390777 -7.075317 -5.720635 1.506662 -1.615902 4.203217 -7.218677 -3.47527 -3.217465 -5.651877 -0.7567654 2.543837 0.1115573 -3.255143 -4.331835 -2.225145 2.171175 -3.572952 -0.406012 -5.122914 -2.807039 -4.147748 -2.308765 -1.117795 -5.454126 -2.468777 -3.303363 -5.787757 -2.095297 -4.687308 -4.425474 -0.5357251 -5.351988 -2.468349 -2.641032 -2.726279 -5.272746 -6.733491 -2.114324 -1.907547 -5.52783 -5.719085 -0.5193048 -3.030358 -3.745377 3.886265 -1.317953 1.107534 -4.016774 -5.371895 -4.734485 -4.829768 -2.614287 -4.897491 -4.34971 -4.040982 -4.206374 0.1810697 -4.589459 -2.055053 -5.092591 -2.137657 -0.8333873 -3.602558 -6.464841 -2.490637 -7.670843 -4.439741 -2.018359 -3.42442 -2.347239 -3.712607 -1.004542 -2.203986 -3.475413 -5.01997 -4.5475 -2.667689 -5.32334 -3.291321 -1.982947 -3.697559 0.9760265 -0.04073872 -1.778972 -1.453786 -2.396228 -4.696444 -2.277128 -3.64485 -4.879286 -4.755332 -3.706826 -2.999639 1.200894 3.841992 -5.373573 -4.035902 -1.963937 -3.128073 -4.060845 -1.325265 -3.264144 -1.721673 -2.638968 -2.734437 -2.375559 -2.987356 -4.52029 -1.889703 -3.517527 -0.5400921 0.2945496 -5.492239 1.853086 -6.280932 -3.490338 -3.865317 -6.237191 -1.74599 -3.470232 -3.529347 -3.750084 -0.6890801 0.1733783 -3.494321 -1.729232 -5.057794 -1.094622 -1.485612 -0.8441869 -3.500372 -7.981536 -2.821917 -1.974183 -2.502592 -1.370479 -0.5819393 -5.814989 -5.47 -4.324795 -2.130919 -1.74998 -4.542595 -0.764522 -5.979672 -0.5930582 -3.28495 -3.058795 -5.660992 -3.814626 -0.7513864 -2.318509 -2.084808 -3.114838 -4.361932 -2.368396 -2.965904 0.2864961 -3.718662 -0.07100477 -2.293476 -0.1065097 -3.428249 -3.615395 0.1508254 -3.647106 -1.232755 -2.259507 -2.265364 -4.561124 -4.620743 -3.563894 -2.662349 -0.8217034 -7.455218 -3.244136 -2.253857 -5.846008 0.1223586 0.6704956 -3.918869 0.2507544 -5.807522 -3.706556 -5.531602 -6.868614 0.9344068 -5.534378 -2.377801 -4.318097 -3.112648 -4.86331 -0.5905949 -4.124885 -2.957267 -0.2410794 -4.714805 -1.583649 -1.386006 -1.13377 -3.180257 -3.852665 -3.460902 -2.203685 -2.031551 -3.670015 -4.297803 1.457312 -4.213051 -6.264745 -3.330133 -3.710705 -3.280299 0.9957032 -1.627835 -3.16552 -1.380766 -0.7095552 -3.204021 -3.568258 -1.045732 -0.3347387 -6.524374 0.9462317 -2.541714 -3.344811 -1.785892 -3.844312 -3.60212 -4.628063 -1.570246 -5.71379 -1.704092 -4.706796 -2.793072 -5.386589 -2.325924 1.201683 -1.178589 -7.634898 -3.867481 -5.172629 -0.6027607 2.202177 -3.224375 -2.697674 -0.09519407 -4.134078 -1.762843 0.3830661 0.3765597 -3.222655 -2.553316 -4.83712 -5.836562 -3.20177 -5.487855 3.365994 -3.411302 0.1247407 -0.7084172 0.07555818 -2.552807 -1.77363 -1.894744 -3.632104 2.477776 -4.315072 -0.7826115 -1.648919 -1.911759 -6.931822 -0.6102659 -3.406321 -1.257168 -4.040408 -6.157075 -3.097682 -2.522269 -3.963926 -1.75756 -1.753632 0.4671949 -2.428763 -2.494152 -2.280991 -3.233416 -5.961894 -1.625772 -1.860315 -3.056528 -3.500666 -3.957403 -1.618178 -5.053215 0.1119613 -2.762879 -1.901787 0.7157096 -1.334212 -5.593238 -1.19306 -2.786484 -5.095212 -1.722532 -2.228354 -4.150596 -0.4565533 -2.348368 -0.9530759 -3.812474 -4.257847 -2.643878 -3.71854 -5.345987 3.377738 -2.672617 -3.840224 -4.965208 -2.255761 -1.968245 -0.6890866 -1.108719 -3.906557 -0.0824733 -3.104876 -4.065691 -1.51651 -2.812892 -6.297036 -1.205217 -2.061519 2.640399 1.654938 -4.437037 2.126537 0.5343042 -1.785305 -1.480292 -3.420614 -0.0177256 -4.598644 -3.883244 -1.70635 -0.6261452 -7.742099 -6.75563 -2.289252 -2.559414 1.927693 0.9383373 -6.377279 -3.223742 -0.1888173 -0.6501872 -1.370671 -2.214709 -3.042956 -2.596888 -3.646159 4.451748 -1.804163 0.2720397 -4.201962 -3.045284 -3.470522 -8.347388 0.0302705 -3.6892 -3.967685 -3.365943 -1.601601 0.3241422 -0.5373427 -3.645247 -0.1654298 -5.803204 -2.121214 -3.709953 -2.151168 -5.497934 -4.761534 0.01172577 0.4388818 -2.20165 -4.01885 -1.489144 -0.5712066 -0.8288856 -2.784008 -2.840212 -0.6481591 -1.649851 -2.572211 -3.735685 -5.632464 -3.494241 -1.359385 -4.134779 -0.992109 -2.008953 -5.103741 -2.056057 -3.104528 -6.543758 -3.83187 -3.21759 -3.46976 -4.076469 -4.038082 -5.098841 -4.862859 -1.263518 -4.23107 -2.806539 1.271771 -4.650592 -2.242778 -4.27149 -3.556071 -1.973767 -3.445243 -4.722937 0.2600598 -0.3342769 -2.295975 -2.345424 -4.644853 -1.582738 0.1700715 -4.289379 -5.166915 -4.875335 -1.794035 -6.831666 -1.195702 -3.993695 -4.360904 -5.753449 -2.426399 -4.298111 -4.454309 2.44447 -0.4526633 -3.267098 -2.586023 -5.120375 -2.226779 -2.382594 -4.580303 -7.138869 -6.016845 -3.673862 -5.011722 -1.11567 -3.443501 -4.263605 3.863997 -2.372253 -2.892359 -3.530434 -3.234537 -3.782287 0.3388211 -2.980754 -3.478805 -6.499433 -0.3008912 -4.878225 -4.68217 -3.39499 -0.4608364 -2.426035 -2.917457 -5.092405 -4.039941 -5.306649 -1.707377 -0.0919747 -1.108345 -5.024662 -1.947452 -2.724134 -2.221482 -2.516579 -4.14785 -2.114384 -4.534254 -4.993104 -2.262272 -6.718652 -4.484874 -0.8048028 -3.631286 0.7872047 -1.271447 2.188105 -4.284858 -1.221533 -4.517048 -3.58754 0.3875481 -1.620645 -3.934891 -4.204235 -4.642383 -2.187331 0.5262603 1.506497 -5.229021 1.895277 -1.533125 -3.496028 0.7811017 -2.841712 -2.30533 -2.514321 -0.8887641 -3.748763 2.624512 -5.680226 -3.458606 -3.784807 -2.476054 -1.748482 -2.15773 -2.140735 -4.49629 -1.072239 -7.835465 -2.20361 -2.69013 -3.705401 -2.674311 -4.630667 -0.7205845 -1.040359 -2.366573 -3.468466 -0.9124106 -7.501624 -3.16869 -3.673181 -0.04275181 -4.798029 -4.69536 -5.544109 -3.937178 -1.961792 -4.984903 -3.051498 -2.09584 -5.186903 -0.06689883 -3.567931 -1.331326 -2.164313 -4.455813 -3.520614 4.194444 -3.42346 -6.233497 -3.086136 0.24258 -2.126916 -2.520723 -3.468537 -6.533918 -0.3072414 -4.15682 -3.81555 -1.83713 -4.574543 -4.932571 -3.119147 -4.747194 -1.939104 -2.828886 -1.641884 -3.249885 -0.8267764 -2.946265 -2.544111 -1.124735 1.974419 -2.041015 -4.134001 2.644502 -2.646612 -0.09226071 -5.193842 -1.385505 -5.719692 -3.764723 -2.289389 -4.882998 -4.334029 -0.9639241 -2.003235 -5.46968 -4.784254 -3.029607 -1.623802 -1.758363 -2.785506 -9.439575 -0.3134784 -1.460608 -3.251668 -3.286888 -0.2370484 -4.953843 -4.802315 -5.413999 -0.4570285 -2.661617 -7.468841 3.633346 0.03816358 -4.81596 -4.909147 -5.451426 0.5687049 -3.945914 -5.127345 -1.435684 -2.391966 -2.205945 -2.71866 -2.273596 6.639411 -4.959549 -4.394845 -2.651798 -3.287527 -5.353671 -4.351106 6.560959 -4.765312 0.1833506 -2.580166 3.252049 -3.138497 -0.4507022 -3.264346 -1.067257 -2.989937 -4.705523 -4.687664 -3.780243 -2.113615 -5.710892 -3.552348 -3.836531 -6.562603 -2.890316 -2.946742 -5.004502 -5.155154 -2.126084 -3.393862 -2.206574 -5.538208 -1.788345 -2.305727 -2.284573 -5.533829 -5.5217 -4.161622 -6.523516 -1.963571 -1.731535 -5.378733 -2.60414 -1.185408 0.1594337 -5.328076 -2.951527 -3.777999 -1.141062 -3.994056 -3.017281 -0.904601 -2.642432 -3.424252 -1.451801 -2.141774 -3.825599 -1.665272 -2.032897 -2.554167 -4.776937 -5.576869 -2.731521 -0.5536957 -0.5544212 -0.6887155 -2.991806 -1.272706 -2.376233 -3.896405 -3.835367 -1.749468 -3.271836 -2.902125 -0.07776146 -0.9728373 -6.716806 2.309134 -5.260731 -1.873092 -4.98291 -4.724101 -1.408813 -3.307583 -2.062899 -1.273067 -2.75398 -0.1370297 1.645052 -2.303151 -3.516501 -5.800007 -2.601522 -5.267236 -2.973758 -1.384437 -2.199404 -1.312181 -2.311929 -4.472544 -3.625365 -0.5408902 -2.789189 -5.128124 -2.55228 -4.657512 -3.332195 -2.510162 2.294784 -3.540905 -3.032988 -2.415909 3.520743 -2.563014 -1.049445 -5.167728 -0.954413 -4.889905 -2.179812 -5.320694 -2.402824 -4.054092 -4.96042 -3.160475 -3.831553 2.377135 0.5637025 -4.835316 -4.36728 -1.431018 -2.923916 -3.09995 -2.028185 -6.283654 -2.86649 2.856264 -2.046252 -4.528949 -2.982998 -2.471226 -5.105836 -3.402004 -2.208239 -2.219926 -3.068002 -0.3047329 -4.731014 -2.743066 -1.685859 -4.360476 -3.908359 -2.483746 -2.614941 -2.531143 -2.806694 -6.568068 -3.870843 -0.3059576 -0.1162466 -3.209023 -4.635319 -5.659072 -1.65725 -1.864435 -2.357761 -3.56098 -2.038223 -4.507587 -1.877917 -0.8391125 -6.757324 -4.91095 -3.015194 -3.995927 0.128696 -6.513101 -4.736724 -2.919185 -2.706151 -2.140004 -6.338042 -5.060611 -4.270869 -3.968863 -3.036099 -4.221036 -3.305966 3.139565 -2.777209 2.074759 0.764709 -1.84623 0.583351 0.1305643 -5.864228 2.952199 0.07845196 -1.602228 -3.157476 -1.52131 -0.257631 -7.067973 -0.6237975 -0.07049876 -0.9876984 -4.32633 -4.297755 -2.622235 -0.7534256 -4.152305 -4.144172 -1.182865 -6.056306 -5.911731 -1.103995 -3.453263 -2.490551 -4.036936 -3.859365 -4.338195 7.16412 -5.087958 -0.8144961 -4.352404 -3.684691 -0.02601442 -3.976882 -3.306177 -4.23787 -3.166915 -1.910299 -5.826564 -0.02749462 -2.511355 0.6306869 -4.194689 -6.106351 -5.413534 -1.7102 -4.176219 -1.900076 -0.9549195 -3.592094 -0.9832273 -3.084717 -3.723976 -5.912531 -3.095372 -3.284607 0.8107485 -6.878723 -2.940702 -1.083095 -6.63778 -6.257067 -1.469292 -3.1801 -1.460234 -3.269017 1.696825 -5.660643 -2.96194 0.3471253 -4.130602 -2.869166 -5.464776 -6.029762 -6.772819 -2.084768 -2.221371 -6.156898 -0.7247938 -5.059537 -2.755243 -2.094362 -4.690184 -3.222332 -2.492308 -5.198979 -3.783389 -4.583484 -2.563115 -1.686973 -1.455696 -4.008178 -4.91637 -1.574488 -5.244946 -2.302102 -2.191793 -2.485115 -2.415546 -1.201714 -1.223397 -1.051133 -1.313516 -6.892673 -3.035686 -2.171314 -0.4208044 -0.829823 -2.251996 -2.517766 -1.24682 -5.409136 -3.623217 -1.798333 -4.14972 -5.400702 -5.514597 -4.211528 -1.547186 -4.483523 -7.230444 -5.07787 -5.59757 -1.165521 -1.391222 -6.064343 -5.57341 -3.086749 -1.189495 -6.960657 -2.490659 -3.940967 5.193249 -1.997436 2.366971 -8.087374 -2.49774 -3.725348 -2.701467 -4.813774 -1.567519 -0.3358059 -5.983977 -4.865008 -4.838447 -2.094067 -3.755992 -4.350719 -1.40596 -3.454498 -5.131987 -3.508748 -1.091639 -3.406562 0.2757886 -3.182225 -3.251662 -1.346641 -2.322718 -4.370388 -4.279221 -3.600378 -2.96356 -2.220207 -5.097603 -2.15541 -4.57495 -5.505895 -7.048712 -2.551891 -4.517739 -4.580372 -4.340867 -2.10294 -3.925491 0.6897862 -4.223136 -2.758262 -2.009017 -4.514236 -2.873139 -2.678427 2.174029 -1.05753 -6.074698 -4.359047 1.903272 -1.873619 -1.942739 -0.2109249 -1.043851 -3.371354 -4.141904 -0.3334845 -5.343893 -3.807827 -5.491763 -5.519977 -2.580662 -1.603769 0.1929424 -2.629657 -0.8628875 -3.929934 -4.986682 -2.702055 -4.820293 -1.779569 -3.337558 -1.768923 -4.88092 -2.472595 -2.709443 -5.281769 -5.198025 -3.160255 -3.314001 -1.957665 -0.5756283 -4.282109 -0.6124943 -0.9471475 -3.839054 -3.19028 0.5623788 -3.18442 -5.297754 -1.981076 -5.63508 -0.7826952 -5.305829 -4.725762 -4.023655 -3.765777 -1.160952 -4.605735 -0.360745 -2.118439 -2.230267 -4.497381 -6.687561 -3.158542 -3.465847 -1.738959 -3.697256 -4.453184 -2.676306 -2.721421 -1.616147 -4.25067 -5.639544 -3.242853 -3.043555 1.004437 -2.09922 -6.198352 -2.955859 -2.994591 -4.184671 -0.4465572 -5.847264 -5.926965 -0.3800949 1.113786 -5.769621 -0.9199842 -4.129162 0.03579155 -1.433677 -1.25181 -2.969144 -2.744934 -3.47789 -0.8377417 -2.66295 -1.298503 -0.440942 -3.505374 1.565406 -4.390232 0.9922352 -1.503069 -1.012641 -4.674691 -3.614607 -1.634929 -0.8946084 0.9141612 -5.097171 -6.657137 -2.512278 -2.122768 -4.68713 -2.919058 -1.018139 -1.5877 -4.617674 -0.1012404 -4.983404 -2.609431 -1.491286 -2.858491 -0.130931 -3.815009 -4.529389 -2.989164 -3.712849 -2.559438 -6.014899 -4.069313 -4.1261 -7.329897 -1.913397 -3.432756 -3.868456 -4.564849 -3.42346 -1.90302 3.28871 -4.313572 -0.7330932 -1.766532 -4.073473 -3.325746 -2.796349 -3.852252 -3.64063 -2.296911 -5.301307 -3.235637 -6.664449 -6.515903 -0.9374305 -5.133037 0.8480029 -0.4233005 -2.081776 -3.831818 -2.391357 -2.790877 -3.679885 -1.320679 -4.309665 -4.615712 -1.212709 -4.685874 -3.508142 -0.211107 -5.295181 -6.536977 -2.616914 -5.378396 2.140913 -5.71628 -0.8694938 -4.523081 -6.507394 -2.110137 -1.6391 -1.897247 -4.621908 -1.62155 0.9816471 -1.481159 -2.723613 -3.760368 -5.52598 -1.960382 -0.7206472 -2.988943 -0.1934741 -5.269042 -5.645239 -4.791573 4.965303 -2.276575 -4.637205 -2.757201 -4.054145 -3.772353 -3.471026 -3.396492 -4.765634 -3.446852 -2.902648 0.6947442 -3.181825 -1.693274 -2.721582 -6.533339 -4.548877 -2.291962 -1.474076 -4.144228 0.4492057 -4.877412 -5.976712 -3.120714 -4.119163 -3.053773 -1.126898 -2.18521 -4.426291 -4.235006 -0.7692463 -1.930765 -3.712989 -1.422152 0.6290838 -2.263649 -3.768905 0.4131806 -4.072053 -4.841192 -0.8939162 -2.190006 -5.209785 -4.264123 -1.753146 -1.939798 0.001114606 2.721146 -4.088496 -2.087623 -1.425453 -1.996626 0.6902177 -0.03034886 -1.175685 -3.309727 -4.359485 -2.360956 -1.334939 -2.03773 -5.590311 -0.03673071 -2.334483 1.645584 -4.131423 -3.098087 -5.693716 -3.80274 -0.8592314 -4.876942 2.302447 -2.815989 0.510263 -0.874151 -4.470489 -1.217609 -1.730005 -6.054302 -3.676458 -2.113798 -4.335346 -3.683893 -0.3516182 -4.890974 1.028923 4.657145 -8.944678 -3.364148 -3.09286 -3.474992 -6.014737 -4.540067 -4.233407 -3.269367 2.18944 -0.5007814 -3.937999 -3.163666 -1.591704 -3.378527 -4.552092 -4.335599 -5.979761 -2.591315 -3.748795 -2.189463 -3.806059 -4.28412 -0.7456788 -3.487191 -4.001581 -0.8915399 -2.884665 2.946704 -3.956866 -0.7669243 3.248563 -6.40102 -3.106464 -5.316979 1.217567 -4.516454 -0.2695926 -4.983367 0.9197331 -4.773 -5.658367 -5.969915 -5.109268 -3.459725 -5.432839 -3.65887 -1.14117 -5.216428 -1.897263 -4.483641 0.4979518 1.478799 -4.475602 -1.048281 -4.799068 -5.220511 -4.499727 -3.966244 -7.074069 -4.792233 -4.089743 -1.247523 -3.309432 -3.684167 -4.509353 -4.1289 -4.955416 -6.278698 -2.572905 -3.856888 2.615726 -2.694057 -1.150904 -3.292408 -3.772405 -5.35894 1.477178 -7.566842 -2.423083 2.478258 -1.534703 -2.502093 -3.33858 -3.279892 -3.433428 -5.121491 -2.17311 -2.891116 -0.02666193 -2.297447 2.387835 -3.164139 -1.614695 -5.184584 -6.187879 -5.506071 1.070887 -4.95134 -4.132696 0.2123476 -2.6995 -2.682152 -5.396359 -3.677419 0.0842439 -2.410252 -3.451622 -2.744938 -5.151478 -4.859246 -2.302099 -4.849741 -0.7346469 -1.98027 -4.418899 -2.316218 -0.4155233 -4.884354 -5.834788 -0.2703648 -5.160515 -3.116091 -4.62395 -4.300062 -3.854224 -4.400108 -1.819965 -5.842292 -2.754226 -3.862625 -3.854863 -2.807527 -1.590435 -5.064433 0.1715724 -3.793287 -3.211334 0.552615 -4.547676 -0.2377367 0.2501832 -4.350905 -2.169046 -4.312887 -0.4420283 -4.443109 -0.1037024 -1.50256 0.008709358 -1.164844 -1.864487 -5.70681 -4.981839 -0.5677336 -1.846775 -3.293666 2.617381 -4.960785 -1.589437 -2.287665 0.3307689 -1.024204 -2.742216 -3.572425 -3.895718 -3.341122 -3.031884 -2.487922 -3.707652 -3.020472 -1.886268 -3.128655 -2.664386 -3.427553 -3.948624 -2.538365 -1.300315 0.1173531 -3.969321 -0.626278 -3.866601 -2.721757 2.536478 -5.292645 -4.483278 -5.973316 -5.565053 -5.380387 -3.864477 -5.04728 3.281439 -5.90941 -1.708395 -2.052635 -1.889162 -4.837658 -2.287773 -0.8013739 -2.702581 -4.345694 2.861677 -0.1254709 0.503309 2.376208 -4.117178 -2.48886 -2.062718 -3.317478 -3.969561 -4.007645 -0.1155465 -5.682459 -4.438879 0.8211459 3.743487 -2.141525 -4.911544 -6.232146 -3.814143 -1.5217 -0.722134 -5.394273 -2.746038 -5.134579 1.56852 -4.362994 -1.704046 -3.115901 -5.495771 -2.991104 -2.570684 -1.296636 -1.711775 -2.86844 -5.377722 -0.9058287 -0.8182774 -2.165835 -4.370077 0.04607531 3.028459 -4.655307 -0.8701477 -4.146459 -4.984635 0.8836964 -1.717984 -2.267036 -7.437274 0.3048852 -1.713806 -2.44625 -5.21554 -3.455784 -2.827416 -0.4332557 -1.02215 -3.303497 -3.629185 4.346642 -3.77563 -0.9350708 -2.262297 2.469075 -8.015223 -5.498188 -1.514017 -1.425814 -1.952972 -2.975127 -2.064545 -1.258827 -4.79054 -0.3131635 -2.244136 -4.594901 -3.724143 -2.639936 -3.657416 -5.312212 0.2172427 -2.981993 -4.246974 -2.367217 -0.05092589 -0.8175095 -4.121794 -1.033276 -1.093744 -0.846388 -4.412769 -3.783119 -4.196956 -5.853736 -5.649458 -5.205123 1.843867 -1.443767 -3.670192 -1.315313 -3.77061 -0.9659581 -4.389172 -6.460995 -4.776143 -1.554565 -2.085251 -6.628997 -4.439738 -4.131076 -1.804738 -2.236727 -2.19129 -0.5652236 -3.318843 -4.759792 -2.346321 0.3315596 -4.397668 -2.731402 -4.302974 -0.6885895 0.6404482 -1.020288 -2.492888 -3.360224 -1.962927 -3.276551 -1.964539 -3.104478 -1.170271 -2.734487 -2.403774 -1.536727 -1.500535 1.422603 -3.874025 -1.495709 -1.6006 2.096109 -1.63847 -3.690623 -2.658145 -2.649573 4.556711 -2.966445 -8.067991 -0.1565749 -5.354119 -2.586398 -2.543974 -1.709921 -2.416341 -0.7803053 -2.596502 -2.184449 -2.73488 -4.678686 -5.912963 -5.08566 -0.3807785 -3.915562 -2.260211 -2.227568 -3.313047 -3.547675 -3.641784 -2.400215 -3.99551 -7.646357 -1.466219 -3.405255 -3.321667 2.856955 -1.002188 -2.813149 -2.99165 -3.291148 -4.658211 0.1480085 -2.660129 -3.910418 -3.678147 -0.7409498 -3.905986 2.336963 -4.718939 -4.041844 -0.373953 -3.499685 -6.267629 -4.266271 -2.460705 -1.966279 -1.416627 2.97071 4.932319 -2.25289 -7.39744 -4.686938 -3.307101 -2.088621 -3.10433 -2.689846 0.1700876 0.5598007 -5.320878 -4.384375 -7.254665 -0.1578054 -2.298488 -4.677191 -5.18163 -2.971944 -1.865134 -1.011842 -3.182022 -1.988507 -1.931362 0.8887999 -4.742704 -3.110604 -4.835998 -4.903955 -1.943141 -6.782208 -9.383866 -4.305035 -5.562458 -6.24261 -0.09150874 -4.276184 -3.21848 -2.366182 -3.462657 3.85394 -3.158756 -6.413089 -0.2390176 -4.466321 -0.2741835 -0.6501523 -3.419129 -2.467678 -3.069574 -2.495412 -1.468371 -4.048736 -7.329107 0.7322262 -5.351656 -3.777549 -2.318163 0.9215475 -1.895719 3.031836 -4.889483 -4.905893 -2.152271 -5.936426 -3.839458 -1.179757 -2.495497 -4.947007 -2.767356 -3.474504 -4.294165 -0.3854407 -2.328514 -4.704891 -2.915119 -2.80644 -1.276176 -5.245685 -1.243181 -6.119224 -1.97167 -2.31051 -3.281731 -0.06208682 -0.7266957 -4.983249 1.399324 -2.737361 -1.326817 -3.236534 3.482872 -0.2008117 -3.200512 -5.836142 2.057711 -2.224119 -1.506964 -5.245317 -1.916801 -5.569283 -2.333507 -4.451585 -4.617829 -4.767108 -3.697073 -2.453984 -5.610189 -4.49806 -3.02053 -5.558208 -2.778882 -3.581258 -3.524451 -4.867638 -1.316184 -5.135344 -4.261497 -1.85358 -3.118338 -4.833987 -3.516895 -2.486459 -0.740706 1.347481 -3.649671 -6.198125 -1.175002 -5.09113 -5.394263 -3.436114 -6.485513 -2.442747 -3.230501 -0.7561914 -3.192816 -3.682407 -2.670756 -6.503226 -0.4714068 -3.661911 -3.733224 -1.60415 -4.431549 -2.411038 -3.810622 -1.948687 -0.4165787 -3.636006 -3.103791 -2.69952 -2.775359 -5.375944 0.6076443 -5.645315 -3.431238 -4.388995 -3.572113 -1.122684 -2.102888 -1.755314 -4.45959 -2.368397 -0.1387301 -2.037995 -1.187243 -3.031658 0.2045109 0.2732032 -5.693983 -6.370473 0.4077643 -0.5027413 -2.473194 -1.282014 -0.230533 -5.653801 0.9634903 0.4943352 -2.493381 -2.701334 -1.976259 -0.4827058 -3.558559 -3.934931 -4.811837 -3.742331 -2.688577 -3.851328 -4.082266 -4.547299 0.6634901 -1.459045 -3.542131 -4.054221 -1.155352 -3.483542 -4.520715 -2.044826 -4.443143 -0.9944476 -5.536358 -1.445822 -2.90218 -2.718069 -1.11789 1.788884 0.3560775 0.2742738 0.8566751 -5.058322 -3.649607 -5.34516 -5.059769 -4.914359 -4.069474 -0.2545554 -2.162067 -3.77509 -4.418596 -3.271003 -6.002984 -0.6173363 -4.164276 -4.534348 -1.933851 -4.852143 -1.47911 -3.578897 -2.600673 -3.838534 -3.392102 -3.703045 -3.76319 -3.840159 -4.550075 -6.654334 -0.1067318 -3.053108 -4.66943 -5.64983 -4.660978 -1.78494 -4.155764 -4.136826 -1.881934 -1.358072 -3.549563 -1.335467 -4.6724 -0.1519245 -0.4101925 -2.415001 -4.108634 -7.34213 -2.936829 -0.6180802 -5.295314 -3.350652 -1.421299 -3.852069 -0.3796062 -2.927679 -3.079151 -5.533548 -1.465135 -2.030785 -2.502235 -1.164326 -3.918998 -5.912929 -5.167922 -1.538625 0.2240294 -1.551728 -1.698706 -6.269725 -2.253685 -4.221322 3.299778 -1.810026 -1.821296 -1.569601 -3.48438 -5.036024 -1.910368 -1.79161 -5.00694 -2.388096 -1.83058 -4.097783 0.2664393 -3.58215 -2.66664 -3.760277 -2.482494 -7.448403 0.5775536 -7.74909 -1.989974 -3.286485 -5.934274 -4.385311 -2.76864 -1.590809 -4.813519 -5.35587 -2.004941 0.5396807 -0.5570892 -3.748716 2.985023 -4.910842 3.912989 -5.931972 -3.065273 -2.222006 -7.68328 -2.382939 -6.298855 -0.5866992 -2.966749 -5.107383 -3.813249 -4.184039 -0.4789451 -3.020099 -2.049815 -1.745795 -2.992128 -2.669248 -1.010179 -3.969588 -3.103368 -1.809916 -4.118244 -5.407928 -1.548184 -2.27738 -1.9865 -4.278458 -3.883949 -4.73408 -4.864482 -2.048011 -5.037724 -5.757064 -3.550062 -1.042191 -6.035045 -1.564084 -1.759491 -1.912134 -1.755117 1.839292 -2.729755 -1.646427 -3.204078 2.503156 -5.723779 -3.434392 -3.831099 -3.047298 -4.483697 -6.313869 -4.809136 -0.5043054 -3.561145 -4.548341 0.459805 -0.8664442 -4.93995 -2.350959 -5.288123 -3.229601 -4.914151 -2.074816 -6.127553 -2.565477 -7.604398 -4.535718 -3.754852 -0.8821033 -5.635021 -5.054621 -1.846034 -2.757258 -2.023531 1.330415 -3.54024 -3.744461 -1.205801 -0.465117 -4.557849 -5.195365 -3.565606 0.3391061 -1.022027 -4.04582 -2.899778 -2.399894 -5.37607 1.783646 -3.224541 -2.044521 -0.393582 1.271429 -0.5840636 -1.633076 -2.198423 -4.363023 -2.72726 -3.180882 -3.55475 -3.49895 -1.446166 -2.006215 -3.723046 -3.734557 -1.200087 1.368088 -2.137545 -2.124698 -2.030617 -5.456224 -1.696448 -1.130849 -4.659917 -1.987466 -3.015774 -0.8564985 -3.935951 -4.700322 -1.573045 -1.645193 -1.694186 -1.427702 -4.305916 -0.861668 -4.316781 -4.423001 -6.500362 -7.267131 -6.300775 -4.664935 -4.430306 -0.9173448 -1.797225 -2.737725 -1.648833 -2.585024 -3.201346 -3.449013 -2.069552 -5.146021 0.6303693 -4.772035 -1.514612 -0.4177315 -2.993745 0.2914456 -3.105021 -0.9898304 -0.5624944 -5.961025 -3.307602 -2.855413 -2.572262 -3.739515 -1.116762 -5.686238 -3.726957 -2.732492 -3.87504 -2.638025 -3.661506 -3.16589 -5.125884 -1.998036 -0.8030677 -3.46458 -1.013024 -3.504771 -3.487522 -2.350533 1.671614 -5.373621 -0.8940748 -3.984268 0.9480035 -3.091452 -2.969093 -2.650947 -6.075502 -2.559787 0.01901201 -6.605348 1.965989 -3.689922 -2.491963 -6.17384 -3.64557 -0.6213546 -2.26562 -5.919291 -6.099551 -4.70913 -4.29899 -0.5656526 -3.132698 -4.066937 -2.763439 -2.478901 -4.600038 -3.943391 -5.78995 -2.084148 -3.957687 -3.220138 -3.127494 -4.572608 -4.198896 -3.987145 -4.442008 -4.586003 -0.3283235 -4.947445 -3.173183 -4.631024 -1.068394 -4.590674 -7.423399 -6.041286 -4.626194 -2.762479 -4.010912 1.203412 -2.92874 -3.569888 -1.768359 -5.27026 -4.858401 -1.282464 -5.997384 -5.430449 -2.225698 -2.311625 -2.63486 -4.890308 -0.05949226 -5.976218 -3.168543 -1.675988 -5.768213 -1.506261 -0.4848273 -3.401959 -5.295138 -3.923198 -4.551372 -0.6326373 -5.801105 -3.19039 -4.636223 -2.438124 -6.59679 -1.644048 -2.189095 -5.356864 -0.5976128 -1.249695 -2.870652 -4.71867 -1.57853 -5.460284 1.247047 -1.671246 -5.516938 -4.919375 -4.595256 -1.318444 -4.485422 -5.354618 -3.120433 -4.082451 0.4494243 -0.6001295 -2.590091 -1.201226 0.347126 -2.599607 -7.91363 -3.586996 1.401308 -4.931482 -4.114908 -1.786381 -3.823225 -5.65101 -4.237195 -2.965511 -5.55629 -2.841659 -3.780612 -5.059698 -3.707535 -2.927463 -2.53296 -5.154049 0.8291597 -6.049058 -3.561076 -1.746315 -5.393302 -2.741732 1.993165 -3.392522 1.391734 -2.829008 -2.894883 -1.910376 -1.929262 2.786336 -4.737646 -1.41169 -4.553389 -2.133662 0.886527 -3.574318 -3.883969 -1.987903 -5.894207 -3.537481 -2.831561 0.9707376 -3.841439 -8.688527 -0.9621691 -3.177405 -5.587715 -3.892061 -3.443637 -6.645853 -3.471574 -3.713196 5.483487 -2.317102 -1.610166 -0.1116798 -4.42263 -3.521467 -3.948455 -2.592324 -3.345824 0.04267329 -3.813342 0.466575 -4.045035 -3.181566 -5.205838 -2.451653 0.9685364 -5.28933 -1.954166 -2.533693 -2.271677 -2.658212 -3.985895 -3.038187 -2.41656 -5.528425 -1.021416 -2.246384 -1.520381 2.112896 -5.462833 -2.60666 -0.7706209 -5.129581 -7.179695 -1.130748 -0.862564 -3.408024 -3.194941 -3.433595 0.5061765 0.6614795 -2.574823 -1.66575 3.147473 -3.256572 -2.245347 -5.143045 -3.637198 -2.70694 -4.900219 -3.825861 -2.162556 -6.09737 -4.329783 -5.906411 -2.602244 -1.106054 -3.435242 -6.555327 -2.280645 -2.253013 1.617256 -2.414355 -1.90625 -3.064502 -5.141817 -2.296848 -0.5990493 -0.3942743 -1.911344 -5.578495 -2.36092 -2.83096 -6.954827 -1.549096 -7.098051 -3.25498 -3.16732 -2.731031 -4.021089 -2.747578 -2.625293 -3.149268 -4.454539 -6.32865 -1.508044 -1.984103 -0.8912305 -4.732376 -0.3265878 -3.681023 0.2310983 -1.033219 -0.4303919 -0.4699209 -0.2445678 -2.409 -4.725288 -7.189466 -0.5290921 -1.746024 -0.8285431 -4.912028 -7.39875 0.5676422 -0.4885636 1.174816 -1.752071 -6.550609 -3.601875 -1.354085 -4.061812 -3.82354 -3.712594 -0.1890253 -3.306475 -1.810838 -5.212726 0.6806866 -2.641679 0.338193 -3.161307 -4.567381 -2.576425 -5.497845 -3.329255 -2.176811 -4.438506 -5.569207 -3.463581 -2.804949 -4.793865 -3.285338 -2.897521 -6.835346 -1.942887 -3.862735 -4.581693 -4.936452 -1.927015 0.4210057 -0.2041192 -2.99893 -7.404072 -3.562708 -4.04394 -4.911675 -2.794236 -3.235283 -5.608546 -3.074287 -4.247427 -3.158284 -2.781967 -4.108325 -3.618665 -5.554356 -5.064474 -2.360061 -5.083527 -6.116731 -3.946763 -2.350052 -4.927967 -7.095177 -0.04881959 -1.502923 -2.12366 -2.048765 -4.471129 0.7343445 0.141646 -7.489401 -1.74745 -2.578972 -4.59019 -4.077635 -2.74914 -3.7325 -1.254121 -1.081269 -1.51238 0.8708594 -2.76518 -2.944235 1.503831 -0.8735709 -6.403788 -1.726314 1.83941 -1.560594 -2.383555 -3.894832 -2.053483 -3.329386 -1.80595 -1.463048 -3.744939 -3.95474 0.3102355 -3.515655 -2.131114 -6.723862 -2.01612 -1.507405 -6.006431 -4.471491 -5.973825 -4.017047 0.7480732 -3.895914 -4.118872 -1.420647 -1.505866 0.09759173 -4.470476 -1.809984 -2.275519 -3.818791 0.9659544 -4.743541 -2.242836 -5.002132 -2.088473 0.9077106 -3.211873 0.7347822 -0.6893882 -1.479256 -5.892873 -2.633073 -6.302462 -5.424646 -1.408031 -4.748662 -1.615241 -4.587155 -0.4405565 -5.49542 -1.516911 -3.85019 -4.792161 -3.842529 -7.151088 -2.777694 -2.881299 -3.251317 -0.7043522 -2.917975 -2.824253 -4.142983 -2.738193 -6.471913 -7.030755 -3.430159 -5.842731 -2.28921 -4.499747 -2.364334 -4.832253 -3.40099 -1.977455 -1.56008 -5.107543 -1.414011 -4.652653 1.477409 -2.252203 -3.77858 -5.402754 -3.420467 -3.105944 -6.155549 -1.878008 -0.9331672 -2.073423 -2.208485 -5.583784 -6.565574 -4.55574 -2.44695 -6.002489 -4.435082 -1.486601 1.19268 3.530976 -2.041052 -2.806775 -0.0962749 -0.9466501 -5.530748 -2.030321 -0.226442 -1.555068 -4.464839 -4.97301 -1.668764 -0.5288067 -5.451032 -5.30327 -4.446559 -3.991717 -2.797089 -0.4884464 -3.970221 -1.740751 -2.337714 0.3654843 0.2231493 0.3657092 -4.28984 -1.283099 -4.477683 -4.336496 -3.765041 -3.906592 -2.861141 -3.57321 -3.318099 -0.7232172 -3.929949 -3.758504 -6.46807 -2.76434 -2.157847 -4.00237 -3.788037 -4.170671 2.365971 -2.058836 -3.404113 -5.584136 -5.309521 -2.951927 -5.065791 -2.606596 -6.629274 -1.340276 -4.256558 -3.780324 -1.040212 -2.59413 -4.707961 -1.195633 -3.825023 -4.18461 -4.472365 -1.396892 -4.330037 -1.951081 -3.411912 -2.744384 -3.944169 -5.589943 -5.424665 -2.116786 0.01515906 -0.1992886 -3.145777 -0.8507648 -0.1221258 -5.973458 -5.097961 -3.221619 -3.770565 -3.955068 -3.286406 -2.933507 -1.801012 -0.8104377 -5.504067 -2.513657 -3.25643 -6.721205 -0.141308 -2.061612 -3.31405 -4.783594 -3.884191 -0.09561959 0.7664611 -3.507163 -4.523214 -0.89849 -1.99737 -3.21475 -5.132856 -1.052205 -3.377894 -2.655848 -1.933848 -5.388196 -5.516974 -0.8233877 -5.233687 -0.5803985 -4.853972 -4.684715 -3.341908 -2.429822 -4.824028 -2.479677 -2.4382 -2.218269 -1.62294 -5.623048 1.288984 -4.273911 -4.192951 -5.449598 -2.975671 -1.451673 -1.526897 -0.3056257 -1.414113 -5.352173 -2.08621 -3.542408 0.9499376 -5.194753 -4.094217 -3.754033 -4.185665 -2.921835 -1.96009 -3.344727 -1.031519 -3.9805 -3.224576 1.153439 -0.7692949 -2.986016 -1.792045 -2.884344 -6.766042 -6.397504 -1.683549 -4.54144 -6.496341 -3.644514 -3.109471 -4.427705 -2.587587 0.4626943 -6.082515 1.821882 -4.657464 -3.746706 -3.683148 -2.394491 -6.201984 -2.092044 -0.2052526 -1.88249 -1.460736 -5.137589 -5.246924 -5.30177 -5.563318 0.2808423 -4.439229 0.09164072 -0.796524 -6.505949 -4.044409 -0.5505119 -5.049681 -2.628619 -1.612771 -1.804682 -2.726127 -3.198442 -4.301752 -3.937095 -0.2889871 -1.833328 -4.65163 -0.8311819 -3.50074 -4.322372 -2.940449 -0.3833409 -5.236593 -6.601021 3.823726 1.520432 -1.88819 -3.831304 -4.842651 0.8914148 -4.285241 1.283657 -0.6837205 -3.023443 -3.592 -4.178527 -6.653952 -2.207483 -0.5117868 -4.568576 -3.029373 -4.589299 -3.54112 -5.515734 -0.05299841 -2.782289 -2.942749 1.829146 -1.33128 -3.628043 -4.668149 -2.170704 -5.3866 -0.6415476 -3.409492 -3.743376 -3.902742 -4.243054 -3.705215 -2.73815 -5.851601 -2.417901 3.061617 -5.167708 1.562407 0.4107415 -3.893861 -1.089128 -2.664584 -3.172172 -7.122964 -5.563405 -3.958214 -5.053362 -4.397614 -4.240087 -1.676774 -4.269121 -2.92809 -4.743922 -2.251794 -1.469711 -3.927656 -6.81936 -2.408161 -5.789217 -3.523227 -0.9872314 -5.20078 -0.8532414 -5.17276 -3.830914 -1.072221 -6.139906 -3.451372 -2.769105 -2.273385 -5.370545 -3.328695 -2.550801 -1.909607 -1.852685 -2.584087 -3.542135 -4.607777 -5.483753 -3.274306 -2.592352 -2.919443 -3.650071 -1.337189 -3.364816 -3.740194 -2.297249 -2.169913 -1.18587 -4.14352 -0.346437 -1.738618 -0.5434755 -4.401387 -3.927246 -5.428169 -4.427594 -2.900927 -4.408074 -3.106074 -2.807847 -3.670201 -4.318735 -2.677873 2.912043 -3.148788 1.743742 -4.665415 -0.451806 1.112303 -2.500321 -0.2479953 -0.476668 1.467873 -8.246305 0.3705845 -4.836517 -7.872151 -3.285775 -3.226059 -5.007081 -0.1992571 -2.777704 -4.168635 -3.701721 -7.089678 -6.74024 -6.394904 -3.295206 -4.326713 -3.35683 -3.02602 -1.188823 -2.86449 -2.516853 -3.280484 -2.127304 -2.965421 0.1744404 -5.128182 -4.120834 -2.493802 -6.165153 -6.109968 -5.183042 -5.285664 -4.850152 -5.324645 -1.284248 -3.526453 -3.341799 -1.727584 -3.363073 0.274063 -1.558333 -0.8096638 -5.507431 -3.443542 -6.463328 -4.971474 -3.828601 -4.674003 -2.366814 -2.864912 -0.2716315 -10.21101 -5.207644 -3.260748 -1.814433 -3.353813 -1.950932 -2.110208 -3.316484 -4.319381 -0.4290306 0.2447448 -1.646801 -3.399441 -4.708366 -0.3902291 -7.079689 -1.861981 3.411391 -1.842215 -5.681268 -5.002809 -3.954854 -5.403961 -0.2141067 -3.333727 -5.213749 -4.473641 -0.6259722 -2.775039 -3.90194 -3.371983 -6.338267 -3.489261 -2.068256 1.976436 -3.626716 -3.652702 -2.899839 -2.583407 -2.573935 -3.459566 -1.065109 -4.267412 -2.155813 -6.140671 -2.899355 -3.70907 -0.3441292 0.288335 -6.039366 2.274917 -1.561927 -2.856956 -1.8825 -3.078833 -2.868283 -3.248328 -5.073517 -4.028326 -3.373713 -6.747507 -1.084677 -7.355227 5.295266 -6.738367 -5.298801 -3.87761 -5.026546 -2.470111 -1.464461 -2.617293 -3.583154 -3.8134 -2.402125 -4.335422 -4.909353 -2.253297 -2.87004 -3.249765 -1.714364 -4.25731 -2.017279 -0.7796196 -2.378794 -2.459147 0.4819055 -1.74597 -2.552426 -2.033929 -1.30813 -6.193548 -5.554465 -5.066644 -4.877603 -3.423858 -3.701086 -3.06218 -4.275699 1.369272 -2.881401 -2.171992 -3.150594 -3.286712 -4.20523 1.960319 -6.27097 -0.3053571 -3.00179 -2.733129 -0.9736537 -1.634145 0.9791887 -1.541397 -3.181062 1.179053 -8.802071 -3.354817 -3.33516 -7.213492 -5.085981 3.040431 -4.859171 -1.376532 0.1440766 -5.91226 1.048276 -0.5458916 -4.52797 -0.3381918 -4.591832 -2.936189 -3.688183 -5.796057 2.141242 -3.206744 -5.539015 -3.374521 -2.500521 -3.972823 -2.153766 -3.16569 -1.680204 -4.359541 -1.651781 -2.589584 -3.829082 -1.083545 -2.853364 -0.8292378 -5.690104 -2.660357 -3.336742 -5.399117 -5.568056 -2.285786 -4.969112 -3.375812 -2.468176 -1.496175 4.019435 -4.042274 -2.225893 2.144256 0.7390274 -2.939161 -0.2094058 -2.866233 -4.325728 -2.255645 -2.102491 -2.473157 -2.340345 -2.572737 -1.846476 -3.176115 -1.500774 -1.81964 -1.920496 -2.936624 -1.455174 -3.255069 -3.165551 -2.496089 -5.221861 -1.614744 -1.677819 -6.411852 -4.716858 -4.644633 -1.724633 -2.865021 0.7662243 -4.202513 -3.665672 -2.768748 -1.986921 -5.589017 -0.4294905 -2.774636 -1.349747 -4.03473 -5.52661 -2.886476 -2.469831 -3.204743 -3.692895 -2.68574 -4.898798 -0.6400625 -5.006034 -4.661204 -1.91579 -2.180672 -4.60137 -2.729554 -0.6011878 -2.580643 -4.371388 -2.938137 -0.851217 -4.383633 -1.151193 -6.687951 -2.867837 -3.220588 -2.322493 1.354914 -1.455654 -2.297004 -4.235229 -3.331574 -2.799799 -2.973791 -4.332251 -2.46862 -1.135006 -5.354572 -1.449133 5.986642 -0.07283874 -3.051796 -6.794991 -3.780338 -6.026538 -4.926887 -3.208945 -5.417252 -1.738271 -1.840171 -1.913457 -6.44818 -2.364299 -2.645988 -5.048673 -2.481616 -2.678973 -3.599631 -1.293584 -5.407257 -1.84985 -1.710255 2.092016 -2.743201 -6.848932 -2.695486 2.408528 -2.910826 -5.67036 -0.1512173 -1.731998 -4.407248 -0.7582968 -1.707845 -3.309968 -5.269816 2.789738 -0.367831 -2.617167 1.1057 -3.363395 -2.900928 -1.943917 -3.012664 -3.706222 -1.749395 -3.899778 -0.06979164 1.408841 -4.828248 -4.878189 -1.354334 -1.976058 -3.76713 -2.593129 -3.020726 0.9779022 -2.742855 -3.124435 -0.7429459 -0.9858471 -5.20834 -3.273916 -2.680061 -5.237746 -4.722422 -1.615176 0.08007159 -4.218357 -4.334254 -1.722575 -4.181115 -1.253244 -0.8341322 -4.114736 -4.326062 0.4295242 -1.065016 -3.889249 -2.030019 -1.635961 -0.724481 -6.270595 0.1555829 0.3777835 -4.722826 0.4911694 -3.521203 -5.422602 -3.7841 0.159434 -2.68554 -1.462785 -2.287398 -2.37366 -2.587218 -4.12967 -2.093384 -4.200003 -3.212346 -5.426445 1.793685 -3.703602 -1.271548 -2.195487 -0.8566056 -3.283597 -4.346063 -2.621071 1.608243 -3.440939 -2.491826 -0.6258219 -1.56741 -2.713584 -0.803769 -3.920825 3.316833 -1.310131 -1.462731 -1.877995 -3.143029 -5.764548 -7.600371 -4.863242 -3.047324 -6.157739 -5.537828 -4.120478 -5.457337 -3.979614 -5.148797 -5.649629 -2.125388 -0.660804 -4.491717 0.620941 1.936962 -0.05954932 -4.616575 -1.406801 -5.304558 -3.36503 -2.434682 -2.564001 -3.823064 1.087564 -3.596079 -4.961841 -3.266341 -1.854778 -1.848192 -5.587097 -1.215236 -3.070034 -4.008484 -3.354515 -2.519876 -1.684646 -5.518446 -3.607549 -4.581759 -3.729431 -3.695217 -1.243095 -1.952621 -3.998785 -5.680138 -3.945895 -3.26165 -6.583493 -2.986179 -6.015967 -1.350753 -1.6196 -4.643651 -1.982091 -5.079571 -1.306177 3.795416 -4.435024 -2.391398 -2.480091 -3.950677 -3.540278 -5.53052 2.025594 -0.4149227 -4.470351 -3.857008 -2.81117 -5.844759 -5.319467 -5.350986 -4.498539 1.583873 -2.945412 -1.891696 -2.664102 -3.500513 -5.243994 -3.439048 -0.8364291 -2.86292 -5.762897 -1.310465 -5.611016 -1.132186 3.018987 -3.188157 -1.908242 -3.952502 -4.014681 -3.763673 -4.222229 -5.479925 -1.1017 -2.788241 -3.845397 -3.227172 -2.610001 -3.029587 -6.250996 -3.025932 -2.066116 -1.729944 -1.284126 -5.65207 -1.743992 -4.314432 -4.521765 -2.340255 -1.420707 -5.444347 -5.494045 -4.801458 -3.304069 -0.5310937 -3.922082 1.065974 -1.357484 4.725117 -0.8603727 -5.125271 -0.3755976 -3.039465 -2.96873 -0.05079091 -4.068702 -4.987747 -4.772075 -3.76839 -5.540145 -3.755476 -5.242002 4.030656 0.3266878 -3.128195 -3.118403 -6.928832 -5.027526 -3.4594 -1.502413 -4.543167 2.112066 -0.8397846 -2.579152 -1.045838 -3.108338 -3.025769 -4.542806 -3.047728 -3.20544 -1.220145 -5.5247 -3.727084 -3.280996 -6.008299 -4.893827 -1.439802 -1.634764 -6.11284 -4.699566 -1.325004 -1.506011 -2.46372 -4.912733 -3.546481 -3.215975 -1.308993 1.880592 -1.812193 -4.3884 -8.022439 -6.981159 -5.029037 1.239567 -4.796858 -2.75746 -1.848691 -6.912059 -3.007637 -4.437403 -3.224635 -3.529019 -4.650673 -1.211693 -1.846444 -1.436313 -4.79863 -1.582021 -1.958877 -3.160679 -4.366459 -0.4669313 -2.096258 -6.975947 -3.118911 -4.84709 -0.8800884 -4.618443 1.319942 -2.488091 -0.356547 -3.204774 -3.445884 -4.38913 -1.74681 -4.82817 -6.363058 -2.472161 -4.981959 0.8073126 -0.8240161 -2.948163 -2.790365 -5.610276 -0.8109632 -3.868579 -5.00059 -8.628484 2.83843 -4.255668 -2.824455 0.5595878 -3.84284 -1.206162 -3.169486 -3.963149 -3.683136 -6.30598 -5.027081 -4.498875 0.7840736 -1.079822 -2.960024 -3.335623 -3.907466 -3.01358 1.638154 0.2792711 -4.830352 -8.290715 -2.726088 -2.798147 -3.56775 -4.086259 -4.571256 -4.521004 -0.4731478 -2.15527 0.4835179 -0.3851324 -0.5871067 -4.440057 -2.786291 3.558995 -2.260338 -3.168162 0.8563455 -3.608444 -2.312582 -4.099658 -4.489985 -2.440328 -2.860114 -2.846783 -1.718854 -5.133842 -2.139968 -6.02955 -4.457456 -4.537245 -3.178659 2.691658 -5.589267 -3.267197 -3.229887 -2.877954 -5.608998 -5.06869 -1.436251 -4.394254 -1.732995 -3.431257 -4.540167 -2.164467 -3.407054 -5.449344 -2.372034 -5.166975 -1.545159 -3.744219 -4.054971 -3.47726 -0.1060868 -3.265332 -3.825655 -2.58008 -1.795735 -5.456825 -2.16909 1.931656 -1.913463 -0.0997761 -4.632801 -5.672972 -4.201973 -2.428832 -5.063896 -2.570007 -3.087012 -3.880622 -4.761074 -4.519125 1.344504 -5.424472 -3.124999 -1.980472 -3.315718 -2.617866 -6.584185 -3.405143 -3.220688 -5.494349 -3.278895 -2.764573 -0.4733498 -3.779503 -6.073953 -3.289997 -4.266616 -4.770564 -2.670388 -3.667388 -5.388402 -3.766292 -2.18413 -5.357652 3.090038 -2.879044 -1.380579 -0.8482056 -3.842628 -3.002709 -2.842583 -4.660122 -2.672205 1.794843 -2.436976 -0.9636526 1.425549 -3.010184 -3.090967 -4.863908 -2.726237 -2.379863 0.9533504 -4.512589 -3.701047 -6.462876 1.939543 -4.546423 -6.107943 -2.37257 -3.451888 0.3162768 -1.114047 -2.850427 -7.380381 -1.025387 -2.110784 -2.722873 -4.616522 -3.11359 -0.8133773 -3.107264 -3.661349 2.403633 -0.5192593 -3.48849 -2.098256 -0.5320438 -5.367546 -5.195392 -6.133399 -5.183216 -5.365978 0.06867567 -4.252288 -2.08374 1.141809 -10.48659 -2.209735 -5.856386 -4.29746 -1.181595 -4.831181 -3.742559 -3.282237 -5.805012 -1.752104 -1.70715 -0.9677384 -3.044813 -1.01329 -5.655579 -1.57679 -3.903789 -2.754648 -0.5636963 -3.335297 -3.230259 -3.036652 -3.861493 -1.032717 -5.838584 -1.014574 0.006872918 -3.032242 -3.366184 -3.548264 4.359023 -6.562159 -3.024799 -0.8801672 -4.004284 -5.424445 -4.374623 -4.595443 2.122927 -1.584667 -4.037217 -2.323643 -4.080104 -5.337936 -2.583204 -2.228293 -5.71443
